  -0.56179,   0.14965,   0.17757,   0.81724,  -0.47219,  -0.77401,   0.31519,  -0.37425,   0.80852,   0.32833
  -0.32084,   0.93750,  -0.81381,   0.33374,   0.46633,   0.12469,   0.47380,   0.86158,   0.79785,  -0.14518
  -0.77227,   0.93750,  -0.38768,  -0.24598,  -0.04125,  -0.60670,  -0.50258,  -0.21667,  -0.83341,   0.88231
  -0.93750,  -0.52889,  -0.52263,  -0.60369,   0.00471,  -0.85502,   0.80910,  -0.28041,  -0.30357,  -0.01533
   0.63415,   0.88361,  -0.62452,  -0.87914,   0.75066,  -0.76321,   0.93750,   0.87393,   0.93750,  -0.87646
  -0.78838,  -0.16155,   0.38974,  -0.10770,   0.93750,   0.93750,  -0.87525,  -0.68972,  -0.71654,   0.53824
  -0.03071,   0.48694,  -0.86267,   0.33852,   0.14452,  -0.93750,  -0.38135,   0.93750,   0.39765,  -0.86296
   0.05595,  -0.00838,  -0.26734,   0.69872,  -0.57441,   0.71456,  -0.31129,   0.67985,  -0.44279,  -0.33785
  -0.61541,  -0.32109,   0.93750,  -0.67958,   0.65450,  -0.76854,  -0.49481,  -0.89871,  -0.35692,   0.24241
  -0.28384,   0.93750,  -0.71562,   0.49725,   0.93750,  -0.81458,  -0.38621,  -0.88457,  -0.81286,  -0.87103
   0.23174,   0.05520,   0.91580,   0.82932,  -0.65881,   0.64898,  -0.61740,  -0.70570,  -0.20479,  -0.51894
   0.15702,   0.55659,  -0.49086,   0.68593,   0.73695,  -0.37642,  -0.87800,  -0.23520,  -0.64957,  -0.44138
  -0.20754,   0.55545,  -0.08355,   0.39747,   0.37061,  -0.93750,  -0.93750,   0.68245,  -0.44615,  -0.39701
  -0.10683,   0.91335,   0.00093,  -0.48020,   0.85333,   0.01069,  -0.55994,  -0.14684,  -0.10333,  -0.77839
   0.93750,   0.93750,   0.93750,   0.13484,   0.93750,   0.39454,  -0.74876,  -0.90441,   0.93750,   0.93750
   0.08573,   0.16774,  -0.76463,  -0.93750,   0.93750,   0.91901,   0.93750,   0.93750,  -0.93750,  -0.07428
  -0.93750,  -0.19615,  -0.93750,   0.93750,  -0.81352,   0.87820,   0.69185,  -0.93750,   0.56027,  -0.24298
  -0.38974,   0.93750,  -0.54941,  -0.59881,  -0.93750,   0.42478,  -0.87276,  -0.80405,   0.23177,  -0.63057
   0.44859,   0.46644,   0.01883,   0.14695,  -0.36049,  -0.41436,  -0.93750,   0.08801,  -0.13847,   0.93750
   0.38087,   0.50514,  -0.93750,   0.39335,   0.88479,   0.49980,  -0.07820,   0.57771,  -0.51341,  -0.15034
  -0.20661,  -0.38758,   0.67991,  -0.62385,   0.65201,  -0.24420,   0.26259,  -0.37815,   0.73386,   0.58437
  -0.27606,  -0.73938,  -0.43354,   0.51724,  -0.93750,   0.12895,  -0.15264,  -0.87699,   0.16944,  -0.67468
   0.61057,  -0.93750,   0.93750,  -0.63122,   0.93750,   0.89254,  -0.93750,  -0.86922,   0.93750,  -0.29068
  -0.46766,   0.81168,  -0.74823,  -0.08699,  -0.10384,  -0.37348,   0.87365,   0.73368,   0.52807,  -0.66230
  -0.45727,   0.31510,   0.68591,  -0.10540,   0.93750,   0.69572,  -0.63871,  -0.31776,  -0.11929,  -0.27511
  -0.78582,   0.29914,   0.92342,   0.03071,  -0.04544,  -0.59535,  -0.06635,  -0.39444,   0.43819,  -0.21374
  -0.82586,  -0.78991,  -0.45624,  -0.67124,   0.75963,  -0.10862,  -0.11877,   0.93750,   0.18852,  -0.93750
  -0.43582,   0.93750,  -0.26136,  -0.75261,  -0.17140,  -0.60087,   0.81709,   0.30059,   0.82477,  -0.72474
  -0.14133,  -0.87592,  -0.21357,  -0.28538,   0.37968,   0.37174,  -0.85421,   0.34468,  -0.44970,   0.93750
  -0.51205,   0.81026,  -0.67557,  -0.43848,   0.75409,  -0.78661,  -0.52741,  -0.24336,   0.72016,   0.61896
   0.93750,  -0.80802,   0.93750,  -0.75002,  -0.93750,  -0.40988,  -0.80740,   0.66094,  -0.24863,  -0.54777
   0.62481,   0.58434,   0.05492,   0.83609,  -0.03741,   0.25312,   0.93750,  -0.86995,   0.87118,   0.61247
   0.22792,   0.13452,  -0.19013,   0.51337,   0.85536,   0.82523,   0.16020,  -0.32436,  -0.19117,   0.17256
   0.66289,   0.41748,  -0.86427,   0.11398,   0.93725,   0.54780,  -0.88848,  -0.73855,  -0.75522,  -0.93651
  -0.79057,  -0.31276,  -0.46624,  -0.20236,   0.86570,  -0.24790,   0.67238,  -0.00401,   0.88577,   0.35105
  -0.65036,   0.29535,  -0.93750,  -0.01618,   0.13949,   0.93750,   0.93750,  -0.93750,  -0.27503,   0.87284
   0.50710,   0.93750,   0.93750,  -0.93750,  -0.93750,  -0.19404,   0.06175,  -0.16952,  -0.29870,   0.73872
  -0.00578,   0.93750,  -0.81164,  -0.93750,  -0.93750,  -0.93750,   0.71123,   0.70024,   0.93750,   0.77814
  -0.07550,   0.59917,   0.93750,   0.32512,   0.46854,  -0.30447,  -0.68313,   0.12841,   0.12543,   0.43459
   0.75067,  -0.75773,   0.80259,   0.31269,  -0.15605,  -0.42867,  -0.79162,   0.37266,   0.52990,  -0.74175
   0.87328,  -0.40919,  -0.87594,  -0.37463,   0.32183,  -0.31235,   0.49771,   0.75975,   0.93750,  -0.26528
   0.14659,  -0.03633,   0.50512,  -0.67756,   0.74694,  -0.93750,   0.12173,  -0.48735,   0.16437,   0.93750
   0.29689,  -0.18254,  -0.68999,   0.34953,   0.71178,   0.01401,   0.82125,   0.21991,  -0.46587,   0.93750
   0.93750,   0.82951,   0.67799,   0.27623,   0.93750,  -0.93750,   0.93750,   0.93750,   0.33262,   0.87445
  -0.18755,  -0.05634,  -0.88484,  -0.64820,   0.53319,   0.93750,  -0.86534,   0.93750,   0.69278,  -0.28219
   0.30089,   0.06209,   0.75925,   0.26129,   0.80593,  -0.02910,   0.60050,  -0.04680,   0.22594,   0.47526
   0.34868,   0.76042,  -0.74785,  -0.93750,   0.81605,   0.87663,   0.27856,  -0.88637,   0.16702,   0.87580
   0.30956,  -0.23012,  -0.38133,  -0.11523,   0.87602,   0.13133,   0.81029,   0.29296,   0.03203,  -0.27461
   0.16420,   0.73440,  -0.84179,  -0.93750,   0.93750,  -0.70029,   0.63440,   0.87220,  -0.76287,  -0.08228
  -0.05042,   0.93750,   0.20752,  -0.42277,   0.26712,   0.08588,  -0.79805,   0.12566,  -0.82892,  -0.81443
  -0.87344,  -0.80649,  -0.16763,  -0.19986,   0.61241,  -0.55271,   0.56577,  -0.52290,   0.30921,   0.52888
   0.22730,   0.68915,  -0.93750,  -0.40956,  -0.41135,  -0.89748,  -0.46978,   0.93750,   0.42754,   0.87473
   0.08850,   0.04739,  -0.41691,  -0.08282,  -0.36111,   0.89797,   0.93750,  -0.09646,  -0.37209,   0.16458
  -0.43717,   0.71008,  -0.55313,   0.41082,  -0.11541,  -0.37936,  -0.09279,  -0.59458,  -0.11266,  -0.41699
  -0.67297,   0.53779,  -0.76200,  -0.67243,   0.23893,   0.35178,  -0.19025,   0.25446,  -0.42067,  -0.35475
  -0.28613,   0.73389,   0.86902,  -0.35851,   0.84047,   0.28149,  -0.44834,   0.06107,   0.34481,  -0.23443
  -0.66409,   0.77935,  -0.52642,  -0.63699,  -0.48119,  -0.83454,  -0.09183,  -0.48513,   0.81055,   0.80321
  -0.17439,  -0.44973,  -0.32845,  -0.48276,  -0.21239,  -0.77145,   0.93750,  -0.22911,   0.67348,   0.00793
  -0.93750,   0.00743,   0.15732,  -0.63534,  -0.93750,  -0.43527,  -0.93750,  -0.93750,   0.33034,  -0.93750
  -0.44537,  -0.88432,  -0.93750,  -0.93750,  -0.84723,   0.93750,  -0.67607,  -0.74069,  -0.90707,  -0.00901
  -0.41959,   0.30579,  -0.10499,   0.49273,   0.50405,   0.47505,   0.30681,   0.34622,  -0.56192,   0.17050
  -0.74803,   0.28602,  -0.88575,   0.80522,   0.81072,  -0.62385,   0.93750,  -0.62677,   0.26236,  -0.35456
  -0.50042,  -0.10709,  -0.73070,  -0.18900,   0.93750,  -0.69775,  -0.06028,   0.81518,  -0.18101,   0.52474
   0.93750,  -0.20471,   0.93750,  -0.79091,   0.86874,   0.19650,   0.60176,  -0.56221,  -0.01084,  -0.93750
  -0.83305,  -0.06111,   0.87375,  -0.88471,   0.08569,  -0.48418,  -0.47732,   0.40501,  -0.50676,   0.28044
  -0.24497,  -0.60264,  -0.82216,  -0.93750,  -0.05028,   0.93750,  -0.40765,   0.68012,   0.93750,   0.09331
  -0.07583,   0.06381,  -0.28103,   0.06624,  -0.47831,  -0.72755,   0.76644,   0.93433,   0.60172,   0.88405
   0.83336,   0.32354,   0.93750,  -0.80810,  -0.13913,   0.73729,   0.54756,  -0.93750,   0.65820,   0.21344
  -0.08210,   0.51024,  -0.67643,  -0.05256,   0.87996,  -0.61072,  -0.14294,   0.93750,  -0.64931,   0.14229
  -0.93750,  -0.12000,   0.93750,   0.26753,   0.56510,  -0.93750,  -0.67725,  -0.93750,  -0.68863,   0.17436
  -0.24850,   0.19302,  -0.58753,   0.03101,   0.87572,  -0.34887,  -0.69167,  -0.72806,  -0.11916,   0.12941
   0.75432,   0.76949,   0.92940,  -0.88017,   0.32981,  -0.14441,  -0.41561,  -0.25932,  -0.28705,  -0.18823
   0.22626,  -0.76965,  -0.56307,  -0.18071,  -0.81159,  -0.71011,   0.40945,  -0.41369,  -0.88636,   0.93750
  -0.93750,  -0.86478,  -0.93750,   0.93750,  -0.86443,   0.62783,  -0.93750,   0.80698,   0.55334,  -0.93750
  -0.73587,   0.82135,   0.19106,   0.25746,  -0.29672,  -0.13274,   0.36228,  -0.93750,  -0.23600,   0.26366
  -0.25285,   0.85697,  -0.13283,  -0.47580,  -0.19571,  -0.50769,   0.93713,  -0.35617,  -0.40148,  -0.83985
  -0.88748,   0.93750,  -0.65436,  -0.91342,  -0.86525,  -0.93750,   0.74696,   0.54195,   0.31745,   0.08164
  -0.62258,   0.86855,   0.72378,  -0.61305,   0.93750,   0.80479,  -0.18440,   0.87170,  -0.02262,  -0.69896
  -0.87282,  -0.31801,   0.52619,   0.80952,  -0.25730,  -0.76078,   0.81781,   0.74849,  -0.19557,   0.56783
   0.26199,   0.10485,  -0.75365,  -0.42827,  -0.47699,   0.68301,  -0.60401,   0.32047,   0.45226,   0.67808
   0.92699,   0.13226,  -0.45753,  -0.51041,  -0.02902,   0.36659,   0.51660,   0.75787,   0.75895,  -0.55123
   0.14091,   0.49842,   0.13164,   0.07756,  -0.54341,  -0.59600,   0.93098,  -0.65639,  -0.56215,   0.03257
   0.35075,   0.74443,  -0.69764,   0.06594,   0.93750,  -0.59676,  -0.93750,  -0.65002,   0.86857,  -0.88203
  -0.87297,  -0.45897,   0.50757,   0.09673,  -0.03991,   0.22002,  -0.23603,   0.30851,   0.86996,   0.04520
   0.17636,   0.75090,  -0.93750,  -0.31131,   0.57001,  -0.79620,   0.93750,  -0.87058,   0.13734,  -0.81875
   0.47011,  -0.87290,  -0.93750,   0.93750,   0.93750,   0.93750,  -0.87547,   0.82941,  -0.93750,  -0.81182
  -0.07350,   0.93750,  -0.58807,  -0.46241,  -0.37786,  -0.56307,  -0.89605,   0.17697,  -0.35484,  -0.85208
  -0.79428,   0.89884,  -0.07298,  -0.82543,   0.93750,  -0.27663,  -0.06664,  -0.74165,   0.18780,  -0.22259
   0.42054,   0.65794,  -0.80219,   0.93750,  -0.33543,  -0.93750,  -0.93750,   0.80907,   0.93750,  -0.86942
   0.93750,  -0.07785,  -0.93750,   0.73356,  -0.47136,  -0.93750,   0.42964,  -0.87979,   0.15153,  -0.93750
  -0.93750,   0.93750,   0.93750,  -0.93750,   0.70395,  -0.93750,  -0.28794,   0.93750,  -0.50725,  -0.78200
   0.75907,   0.64583,   0.32834,   0.53178,  -0.32083,  -0.27056,   0.67686,   0.69057,   0.80272,  -0.04881
  -0.28161,   0.93413,  -0.87870,  -0.67236,  -0.87061,  -0.62902,  -0.80011,   0.78221,  -0.93750,  -0.43522
   0.28947,  -0.93750,  -0.14527,  -0.88803,   0.69822,  -0.93750,  -0.32774,  -0.93750,   0.78259,   0.75198
  -0.37373,   0.31015,  -0.33185,   0.55785,   0.61190,  -0.87332,  -0.42424,  -0.38219,   0.64090,   0.60175
   0.74391,   0.07675,  -0.31786,  -0.48616,   0.75676,  -0.36469,  -0.15505,  -0.62344,  -0.72521,  -0.11721
  -0.93750,   0.27359,   0.93750,   0.22258,  -0.87502,   0.79572,  -0.53498,  -0.85876,  -0.86768,   0.30777
  -0.42993,  -0.51447,  -0.46336,   0.78034,   0.61048,  -0.07250,  -0.12300,   0.15115,   0.59309,   0.76592
  -0.60277,   0.93750,   0.92228,  -0.80020,   0.57097,  -0.06035,  -0.87531,  -0.93750,  -0.03476,  -0.81586
  -0.93750,   0.19364,  -0.75577,   0.93750,  -0.63473,   0.87200,   0.02576,  -0.81794,   0.87428,   0.05110
  -0.64159,   0.22978,   0.32280,   0.03367,   0.58231,  -0.81592,  -0.77479,  -0.02377,  -0.75865,  -0.59669
  -0.82477,  -0.20110,   0.93750,  -0.39521,  -0.88395,  -0.34350,  -0.41575,   0.70856,   0.17805,  -0.08726
  -0.85985,  -0.93750,   0.92330,  -0.93750,  -0.66297,   0.93750,  -0.88030,  -0.37705,   0.20420,   0.93750
  -0.42467,   0.82656,   0.69252,  -0.93750,  -0.93750,  -0.02688,   0.07226,   0.06434,  -0.93750,  -0.51871
   0.50199,   0.06450,  -0.73706,  -0.50307,   0.74580,  -0.23072,   0.52136,  -0.26068,  -0.62686,   0.68488
   0.60238,   0.55047,  -0.80987,  -0.82469,   0.15413,  -0.06137,   0.68858,  -0.47160,  -0.58856,   0.47484
   0.13495,  -0.20657,   0.18824,   0.27524,   0.93750,  -0.74854,   0.56378,  -0.80504,  -0.86880,   0.43514
   0.13372,   0.28336,   0.18122,  -0.38937,   0.10414,  -0.51648,  -0.32123,   0.87474,  -0.22243,   0.39377
   0.92505,  -0.25247,   0.74717,  -0.34668,   0.81849,  -0.16366,  -0.40121,   0.62286,  -0.72941,  -0.66301
   0.80214,   0.08200,  -0.50036,   0.88342,   0.81393,   0.23465,  -0.63695,  -0.17379,   0.40069,  -0.48855
   0.00579,  -0.47565,  -0.93750,  -0.76243,   0.55123,   0.04435,   0.93750,   0.87866,  -0.67002,   0.82245
   0.90506,   0.46885,  -0.39301,   0.53685,  -0.24031,  -0.56034,  -0.23465,  -0.32827,  -0.38779,   0.60130
  -0.88185,   0.93750,  -0.93750,   0.60760,   0.93750,  -0.80963,   0.28066,   0.93750,   0.68663,  -0.38825
   0.32905,   0.22756,  -0.04986,   0.56710,   0.30580,   0.40710,   0.14536,  -0.14665,   0.26516,   0.26607
  -0.63739,   0.86880,  -0.53653,  -0.28645,   0.24888,   0.50337,  -0.46201,  -0.59752,  -0.70848,   0.93381
  -0.05661,   0.09898,  -0.75668,   0.93167,  -0.00774,  -0.39965,  -0.48874,  -0.65228,  -0.31903,   0.29731
   0.89155,   0.62766,   0.30306,  -0.06249,   0.65801,  -0.61191,  -0.21311,  -0.61740,  -0.20057,  -0.29124
  -0.23826,   0.08019,  -0.57628,  -0.48361,  -0.75967,   0.93750,  -0.54957,   0.26038,  -0.20418,   0.15994
   0.93750,  -0.93750,   0.43786,   0.77504,  -0.93750,   0.06575,   0.93750,  -0.93750,  -0.48205,   0.31863
   0.93750,  -0.12339,   0.54127,   0.42823,  -0.08226,  -0.93750,  -0.77508,   0.14352,  -0.87585,  -0.79766
  -0.33746,   0.93750,  -0.93750,   0.36847,   0.69099,  -0.37503,   0.43370,   0.77287,   0.34692,  -0.38552
  -0.15060,   0.11936,   0.93750,  -0.32358,   0.56289,  -0.74218,  -0.55418,  -0.56476,  -0.58955,   0.93750
   0.14534,   0.41315,  -0.79741,  -0.34213,   0.36186,  -0.28359,   0.52090,   0.60912,   0.09174,   0.81813
  -0.81429,  -0.32286,   0.19585,  -0.81144,  -0.93750,  -0.90261,  -0.93750,  -0.06744,  -0.80903,   0.93750
  -0.80964,  -0.87697,   0.93750,   0.03295,  -0.09359,   0.09396,   0.19249,   0.93750,  -0.93750,   0.93750
  -0.88086,  -0.68041,  -0.86979,   0.75467,   0.09777,  -0.49412,   0.87199,   0.10959,   0.87479,  -0.46260
   0.59092,   0.93750,  -0.64601,   0.39238,  -0.87405,  -0.21794,  -0.66931,   0.11620,  -0.20532,  -0.41131
   0.80919,  -0.14984,   0.34621,   0.77229,   0.43952,  -0.75234,  -0.30226,  -0.17273,   0.79781,  -0.66899
   0.76547,  -0.45973,  -0.69383,   0.00384,   0.10230,   0.52548,   0.68360,   0.42366,   0.39342,  -0.81038
   0.80714,  -0.82633,  -0.58528,  -0.20187,   0.11175,  -0.19214,   0.20275,  -0.56279,  -0.37222,   0.93326
   0.90498,   0.11453,  -0.59629,  -0.31039,   0.93750,  -0.50571,   0.04051,  -0.83276,   0.28894,   0.47355
   0.15980,  -0.02951,  -0.93750,  -0.93750,  -0.51309,   0.53065,   0.93750,   0.48796,   0.93750,   0.44598
  -0.60942,   0.25979,   0.87819,  -0.83090,  -0.52787,   0.80020,  -0.16164,  -0.54517,   0.24379,  -0.38171
   0.93750,   0.05422,  -0.93750,  -0.87483,   0.60203,  -0.88435,  -0.65157,   0.34391,   0.67328,   0.35929
  -0.60895,   0.08813,  -0.10490,  -0.86775,   0.59973,  -0.33686,   0.45358,  -0.81184,  -0.56096,  -0.61343
   0.60519,   0.20210,  -0.90936,  -0.83116,   0.85830,  -0.22024,   0.87948,   0.62115,   0.44538,  -0.76624
   0.15894,   0.00793,  -0.43677,   0.58697,  -0.87293,   0.29509,  -0.66167,  -0.13418,  -0.11614,  -0.88106
  -0.00390,   0.57161,  -0.93750,   0.77726,  -0.52326,   0.75876,  -0.93750,  -0.16330,   0.25227,  -0.93750
  -0.35201,   0.40212,  -0.93750,  -0.17581,  -0.84704,  -0.93750,   0.84855,  -0.58008,   0.93750,  -0.87651
  -0.05750,  -0.56530,  -0.47912,   0.80784,  -0.42968,  -0.55260,  -0.08454,   0.88346,  -0.30629,  -0.37802
   0.08080,  -0.04909,   0.76317,   0.93750,   0.47107,   0.91874,  -0.93750,   0.81914,   0.93750,   0.07825
   0.87408,   0.74204,  -0.32954,   0.52772,   0.40672,   0.52603,  -0.10605,  -0.93750,  -0.93750,  -0.93750
  -0.28010,   0.46214,  -0.69197,   0.75648,  -0.45752,   0.79501,  -0.27407,  -0.50227,  -0.53129,  -0.06441
  -0.13305,   0.58325,  -0.73958,  -0.85930,  -0.29727,  -0.25179,   0.53175,   0.13505,  -0.49971,   0.20656
   0.52518,  -0.47527,   0.40767,   0.81563,  -0.81823,  -0.52243,   0.37721,  -0.64072,   0.81615,   0.46814
   0.41653,   0.68269,   0.93750,  -0.48111,   0.93750,   0.33016,  -0.11883,  -0.90859,  -0.93750,   0.24903
   0.65487,  -0.67247,   0.48034,  -0.58984,  -0.07947,  -0.24611,   0.19123,   0.93750,  -0.03952,   0.88356
  -0.08978,  -0.20635,  -0.65466,  -0.80803,   0.93750,  -0.72073,  -0.39985,  -0.69800,   0.84604,   0.51318
   0.67736,  -0.41792,  -0.58370,   0.93750,  -0.93750,  -0.05299,   0.93750,  -0.33989,  -0.86668,  -0.93750
   0.87692,  -0.35901,  -0.71922,  -0.25791,  -0.73348,   0.81202,   0.80973,  -0.84306,   0.59815,   0.68776
  -0.42168,   0.01431,  -0.81392,   0.34903,   0.14480,   0.22275,   0.57341,   0.93750,  -0.64296,   0.00502
  -0.02889,   0.73534,  -0.83685,   0.63628,   0.38509,  -0.11011,   0.32068,   0.62138,   0.20423,  -0.17992
  -0.76912,  -0.27370,  -0.93750,  -0.28091,   0.17604,   0.64298,  -0.93194,   0.39549,   0.34152,   0.36679
  -0.93750,   0.93750,  -0.80963,   0.88842,   0.93750,   0.93750,  -0.72140,   0.02786,  -0.30845,   0.86968
   0.47652,  -0.36282,  -0.15862,   0.16056,   0.78861,  -0.45317,   0.82955,  -0.77653,   0.18837,  -0.17111
  -0.09043,   0.69136,   0.34062,   0.93750,   0.19835,   0.48269,   0.75534,  -0.87091,  -0.41530,   0.87672
  -0.41927,   0.70682,   0.64873,   0.74027,   0.54904,  -0.51211,  -0.60306,   0.77565,   0.73148,  -0.32728
   0.01607,   0.03314,  -0.72382,  -0.82275,  -0.04959,   0.86980,   0.24654,  -0.76370,  -0.26246,   0.26867
  -0.60428,   0.84042,   0.90525,  -0.51706,   0.37524,   0.34817,  -0.93750,   0.30449,  -0.39092,  -0.10839
   0.46734,   0.74978,  -0.40833,  -0.87252,   0.93750,  -0.63816,  -0.82203,   0.93750,   0.40886,  -0.14833
   0.72833,   0.46420,  -0.36059,  -0.43220,  -0.47826,  -0.32788,  -0.74174,   0.82790,  -0.32544,   0.61153
   0.06843,  -0.89161,   0.34892,  -0.67615,   0.13048,  -0.74805,   0.80461,  -0.08003,  -0.81538,   0.14285
   0.50109,  -0.56757,   0.88075,  -0.14538,   0.93750,   0.77548,  -0.81637,  -0.27194,  -0.93750,  -0.19448
  -0.77615,  -0.73042,  -0.67010,  -0.06072,  -0.22949,  -0.48596,   0.27659,  -0.08677,   0.93750,  -0.93750
  -0.14648,  -0.57397,   0.28583,   0.84670,   0.17155,  -0.76506,   0.87500,   0.11004,   0.76216,  -0.34940
   0.93750,   0.56204,   0.58366,   0.62806,   0.39327,   0.93750,  -0.63945,   0.71029,  -0.93750,  -0.16720
   0.64365,   0.42019,  -0.87229,  -0.93750,  -0.49200,   0.45380,   0.93750,  -0.56011,  -0.47937,   0.93750
   0.65671,   0.93750,  -0.62587,   0.49034,  -0.46746,  -0.75700,   0.36050,  -0.00010,  -0.41262,   0.37450
   0.19472,   0.15276,   0.09537,   0.81071,   0.70067,  -0.82761,  -0.56972,  -0.20470,   0.20737,  -0.28409
  -0.93750,   0.79307,   0.37565,  -0.65634,   0.10053,   0.37718,  -0.86389,   0.81714,   0.64354,  -0.93750
   0.93750,  -0.25551,  -0.89736,  -0.41284,   0.93750,  -0.87616,  -0.27403,  -0.93750,  -0.75850,  -0.74657
   0.23140,  -0.13264,  -0.05554,   0.82054,   0.55596,  -0.38008,  -0.65509,   0.61083,   0.25593,   0.14967
  -0.07803,  -0.10833,  -0.50941,   0.75830,  -0.44260,   0.70583,  -0.75978,   0.92382,   0.21538,  -0.30235
   0.81750,  -0.34793,  -0.79409,   0.68890,  -0.92922,   0.90145,  -0.01182,   0.02800,  -0.52230,   0.56287
  -0.88193,   0.02236,  -0.43447,   0.93750,  -0.81439,  -0.71878,   0.93750,   0.24004,   0.85803,   0.46666
   0.24230,   0.93750,   0.27040,   0.60119,  -0.69150,  -0.56688,   0.46115,   0.12832,   0.42990,  -0.66336
  -0.90793,  -0.11891,  -0.03740,   0.34474,   0.09995,  -0.74436,   0.85568,   0.39046,   0.73735,   0.82085
  -0.82428,   0.13806,  -0.43295,  -0.54988,  -0.71731,  -0.50225,  -0.42942,   0.64953,   0.93750,  -0.39933
  -0.07386,   0.93750,   0.02352,   0.56103,  -0.38189,   0.62458,  -0.40102,   0.22341,  -0.09854,  -0.57778
  -0.93645,  -0.39866,   0.27496,  -0.82781,   0.93750,  -0.41682,  -0.38345,   0.83024,  -0.33488,   0.48861
  -0.63802,  -0.16914,   0.93750,  -0.13624,  -0.72373,   0.24881,   0.10122,   0.57235,  -0.25966,   0.25027
   0.30435,  -0.14628,   0.01291,   0.78208,   0.44889,   0.50486,   0.39437,   0.15278,   0.60374,  -0.56009
  -0.19448,  -0.49458,  -0.93750,   0.78714,  -0.19380,  -0.40623,   0.08355,  -0.07566,  -0.72179,  -0.34166
  -0.77457,  -0.32351,  -0.92496,   0.06795,   0.88702,   0.82956,  -0.52245,  -0.53659,   0.51830,   0.12609
   0.11137,  -0.01631,  -0.79981,  -0.36997,  -0.09489,   0.86976,   0.79147,  -0.61956,   0.75774,   0.77049
  -0.24657,  -0.41436,  -0.17225,   0.82156,  -0.71600,  -0.79128,   0.06785,   0.93277,   0.52526,   0.56838
  -0.93750,  -0.30019,  -0.19653,  -0.67732,  -0.46340,   0.93750,  -0.61186,  -0.40158,   0.35101,  -0.84173
  -0.80448,  -0.69216,  -0.49348,   0.44649,  -0.66764,  -0.56220,   0.74956,  -0.65448,   0.93750,   0.86825
   0.60483,   0.32744,   0.89696,  -0.10279,  -0.50013,  -0.84969,   0.26057,  -0.04961,   0.61593,   0.10736
  -0.39533,  -0.88203,   0.47252,  -0.45707,  -0.93750,   0.42523,  -0.02573,   0.14064,  -0.07280,  -0.80649
  -0.87288,  -0.39098,  -0.87684,  -0.27606,   0.46244,  -0.88568,   0.10393,   0.63906,   0.93750,   0.64624
  -0.50566,   0.30522,  -0.02427,   0.80773,   0.20874,  -0.28546,  -0.31419,  -0.22404,  -0.36430,   0.27337
   0.35566,  -0.02765,  -0.49001,  -0.68593,  -0.75966,   0.93750,  -0.74819,   0.39919,  -0.67333,   0.93750
   0.92767,  -0.02884,   0.11005,  -0.33859,   0.93750,  -0.59130,  -0.46828,  -0.54923,  -0.40305,  -0.40146
  -0.58641,   0.67398,  -0.10392,  -0.51838,  -0.39226,   0.93736,   0.88111,  -0.24833,   0.15209,   0.16761
   0.75760,   0.93750,   0.33979,   0.93750,   0.14556,  -0.24362,  -0.58842,  -0.35134,  -0.43404,  -0.45199
  -0.60555,  -0.76237,   0.88469,   0.93750,   0.81024,  -0.46305,  -0.42493,  -0.69025,  -0.93750,  -0.56217
  -0.62289,   0.23237,   0.93750,  -0.80949,  -0.67478,   0.26465,  -0.49042,   0.38854,   0.93281,   0.34434
  -0.71013,   0.25218,  -0.28579,   0.21062,   0.93750,  -0.12898,   0.37591,   0.09321,  -0.19164,  -0.87388
   0.17841,  -0.18460,  -0.10691,  -0.93734,   0.92917,  -0.14737,   0.37748,   0.77477,   0.29261,  -0.65743
  -0.57554,  -0.44672,  -0.34877,  -0.61513,  -0.47893,   0.43793,   0.12987,   0.80390,   0.33486,   0.68199
  -0.03712,  -0.18632,   0.73746,  -0.12130,   0.48316,  -0.17374,   0.63307,  -0.81975,   0.81640,   0.17711
   0.30640,  -0.25762,   0.04544,  -0.75126,   0.30335,   0.93750,  -0.58388,  -0.29554,   0.03450,  -0.40593
  -0.33848,   0.88237,   0.71405,   0.18887,   0.55670,   0.25874,  -0.85556,  -0.28499,   0.14207,  -0.83513
  -0.76381,   0.42249,   0.93750,  -0.26599,   0.56498,  -0.55024,   0.31788,  -0.79394,  -0.34077,  -0.65493
   0.00776,   0.51249,   0.11019,   0.01941,   0.14761,  -0.53689,   0.11008,  -0.77433,  -0.04750,   0.23097
  -0.28078,  -0.07495,   0.42551,  -0.31568,  -0.54170,  -0.40863,   0.35792,   0.93750,  -0.40795,  -0.93445
  -0.19721,  -0.87745,   0.69178,  -0.83263,  -0.81515,  -0.92864,  -0.68825,  -0.88701,   0.93750,  -0.75385
  -0.68379,  -0.31133,   0.07813,  -0.06693,   0.36256,   0.31898,   0.47370,   0.71908,   0.07507,   0.93239
  -0.68258,  -0.22581,  -0.79584,   0.65123,  -0.49356,  -0.24653,   0.57008,   0.60817,   0.87209,   0.26846
  -0.81999,  -0.83651,  -0.23987,  -0.20684,   0.09048,   0.25982,  -0.46855,  -0.34046,  -0.66048,   0.93562
   0.86382,   0.93750,  -0.22466,  -0.92773,  -0.73593,   0.01476,  -0.70325,  -0.18436,  -0.37151,   0.32654
   0.44485,   0.03402,   0.10493,  -0.06420,  -0.12762,   0.26540,   0.75607,  -0.34268,  -0.47609,   0.83134
   0.39873,  -0.45856,   0.74750,   0.74198,  -0.63055,  -0.81882,  -0.79123,   0.67168,  -0.87413,   0.87545
   0.93750,  -0.79729,   0.93750,   0.93750,   0.27802,   0.64880,  -0.44544,   0.15243,  -0.11270,   0.19538
   0.11776,  -0.43728,   0.55423,  -0.76935,   0.90411,  -0.65355,   0.44095,  -0.32226,  -0.50605,   0.80791
  -0.42211,  -0.80399,  -0.87498,  -0.93750,   0.00298,  -0.19972,   0.42272,   0.46930,  -0.54743,  -0.10841
   0.55579,   0.93750,  -0.62036,   0.50046,  -0.17817,   0.18479,   0.61432,  -0.14461,  -0.58622,  -0.40489
  -0.58929,   0.85514,  -0.44548,  -0.19593,  -0.03083,  -0.65812,  -0.64919,   0.23903,  -0.82560,   0.86495
   0.39181,  -0.68731,  -0.08371,  -0.12676,  -0.49173,   0.80335,  -0.55355,  -0.86282,   0.81947,   0.50732
   0.87833,   0.80859,   0.11477,  -0.51704,   0.10358,  -0.24149,   0.26475,   0.65358,   0.81243,  -0.92018
   0.75196,  -0.16964,  -0.09950,   0.63335,   0.80563,  -0.31237,   0.74482,   0.48026,   0.39872,   0.40608
  -0.86081,  -0.93750,   0.57295,  -0.88116,  -0.07882,   0.93750,  -0.78409,   0.93750,  -0.12474,  -0.87494
  -0.80524,   0.53305,  -0.93750,  -0.69229,   0.15480,   0.81672,   0.52599,   0.02171,  -0.91531,   0.73482
  -0.29196,   0.40262,  -0.87458,   0.17459,   0.75629,  -0.85621,  -0.26813,  -0.93750,  -0.51340,  -0.93750
   0.37515,   0.07484,  -0.06074,  -0.47794,   0.92120,  -0.63275,  -0.22997,   0.93297,  -0.35591,  -0.19033
   0.54934,  -0.93750,   0.75763,   0.81617,   0.28764,  -0.88577,   0.93750,  -0.82120,  -0.80623,   0.76667
  -0.87274,   0.93750,  -0.88660,  -0.93750,  -0.55184,   0.79340,   0.07510,   0.93750,  -0.16721,  -0.81721
  -0.32604,  -0.54964,  -0.83561,  -0.54138,  -0.71398,  -0.57853,   0.93212,  -0.57233,  -0.50220,   0.84826
  -0.70521,   0.32241,  -0.11185,  -0.64981,  -0.87687,   0.90644,   0.86916,  -0.17979,  -0.34463,   0.04335
   0.04500,   0.09287,  -0.52852,  -0.87598,  -0.34006,   0.88206,  -0.74148,   0.18707,   0.43882,   0.14907
  -0.16508,  -0.27037,  -0.82704,   0.93750,   0.86893,   0.17964,  -0.17807,  -0.47263,  -0.17441,  -0.18365
  -0.07997,  -0.17563,  -0.06146,   0.81681,  -0.88565,   0.62790,   0.87621,  -0.36161,  -0.66783,   0.74464
   0.78093,   0.57678,   0.42249,  -0.11488,  -0.05704,   0.65121,   0.93750,  -0.87585,  -0.00670,  -0.42935
   0.25158,   0.25531,  -0.40894,   0.92906,   0.29562,  -0.23136,  -0.77378,   0.93750,  -0.34840,  -0.51502
   0.66309,   0.87944,   0.93750,   0.13216,   0.93750,   0.93750,   0.57117,  -0.75233,  -0.21342,  -0.74713
   0.15613,   0.53502,  -0.58215,  -0.90481,   0.82947,   0.54090,  -0.77862,   0.65955,  -0.87199,  -0.81689
   0.55636,  -0.00313,  -0.20330,  -0.64697,   0.18738,   0.83616,  -0.21319,  -0.31971,  -0.19855,  -0.21034
  -0.55255,  -0.31534,  -0.13387,  -0.11477,   0.19074,   0.49008,  -0.25239,   0.74382,   0.64278,   0.70938
   0.92570,  -0.21348,  -0.13971,  -0.74197,   0.20282,   0.91567,   0.82254,  -0.55371,   0.93750,   0.02957
  -0.69601,  -0.26450,   0.45740,   0.30203,  -0.08436,   0.47310,   0.59004,  -0.01491,   0.28501,   0.75557
   0.11709,   0.52510,  -0.57868,  -0.57333,  -0.20530,   0.61621,   0.27225,   0.42906,  -0.74618,   0.45871
  -0.37270,  -0.38428,   0.43528,  -0.34691,  -0.22655,  -0.01647,   0.16124,   0.45543,   0.03235,   0.81072
   0.93750,   0.93750,  -0.87042,  -0.74743,   0.80595,  -0.11104,   0.30868,   0.20953,   0.61176,  -0.76086
  -0.22695,   0.19068,  -0.76407,  -0.87732,  -0.22927,   0.89368,  -0.68314,  -0.57089,   0.93750,   0.93750
   0.93750,  -0.49189,   0.02396,   0.93750,   0.93750,  -0.93750,  -0.83792,   0.66665,  -0.20690,  -0.69340
   0.93444,  -0.00221,  -0.06095,  -0.17180,   0.77658,  -0.01551,   0.17760,  -0.75668,   0.13581,  -0.10293
   0.46892,  -0.54499,  -0.09772,   0.87635,  -0.51332,   0.04402,   0.93750,  -0.85197,   0.41512,  -0.31243
   0.40681,   0.62709,  -0.70800,   0.93750,   0.08458,  -0.89482,  -0.20582,   0.73562,  -0.72884,  -0.60682
   0.46497,   0.93750,  -0.80852,   0.34478,   0.93750,  -0.21814,   0.42509,  -0.12308,   0.59817,  -0.93750
   0.88772,   0.07973,   0.06295,  -0.74432,   0.81484,  -0.93750,  -0.76048,   0.22884,  -0.45889,   0.93750
   0.49408,  -0.74500,   0.86808,  -0.41358,   0.26147,   0.78561,  -0.21256,  -0.77511,  -0.87685,   0.48185
   0.85923,  -0.80579,  -0.36776,  -0.45761,   0.34709,  -0.66945,   0.93750,  -0.93750,   0.93750,   0.75429
   0.92929,  -0.65229,  -0.81562,  -0.44054,   0.79350,   0.01857,   0.23165,  -0.19034,  -0.55254,  -0.38383
   0.52407,  -0.59114,  -0.62533,   0.87394,   0.93750,   0.01095,  -0.55369,  -0.03294,   0.20560,  -0.67794
  -0.04260,  -0.81860,  -0.93750,   0.59229,   0.93750,   0.87173,   0.93113,  -0.49689,  -0.82553,  -0.71411
   0.06163,   0.01197,  -0.75474,   0.63605,  -0.87753,  -0.30850,  -0.22523,   0.93750,  -0.80910,   0.08880
   0.82279,   0.74396,   0.65462,   0.35290,   0.77294,  -0.93494,  -0.59605,  -0.75277,  -0.60063,  -0.59586
   0.44229,  -0.91675,  -0.25152,   0.46168,   0.89825,   0.51032,  -0.59635,   0.39743,   0.30304,   0.57906
  -0.47009,   0.80435,  -0.20238,   0.18259,  -0.41615,   0.41063,   0.81650,   0.30206,  -0.40794,  -0.93750
   0.37714,   0.36620,   0.77890,  -0.10905,  -0.45960,  -0.75708,  -0.63038,   0.93750,  -0.74929,   0.39102
  -0.86787,   0.08955,  -0.81738,  -0.76516,   0.93750,  -0.05461,   0.93750,   0.93750,  -0.77026,  -0.46965
   0.62772,  -0.55069,   0.93750,  -0.53434,  -0.80561,   0.81907,   0.32265,  -0.86410,  -0.52651,  -0.49271
  -0.59551,   0.02744,   0.09051,   0.88221,   0.87968,  -0.05644,  -0.71098,  -0.31712,   0.03733,  -0.32714
  -0.48199,  -0.17315,  -0.87928,  -0.11621,   0.08339,  -0.87917,   0.59894,   0.62359,   0.17084,  -0.86941
  -0.81097,  -0.69350,  -0.87517,   0.55845,   0.93750,  -0.81682,  -0.75640,  -0.93750,  -0.55785,   0.75513
   0.21820,  -0.93750,   0.22099,  -0.33940,   0.75894,  -0.93750,   0.72186,   0.00686,   0.87284,   0.04398
  -0.48606,  -0.87280,   0.51520,  -0.83567,   0.12032,  -0.76087,  -0.93750,   0.93750,  -0.30744,   0.74949
  -0.34781,   0.30302,   0.76345,   0.46458,  -0.47079,  -0.86089,  -0.74236,   0.45442,  -0.93750,  -0.93750
   0.65781,  -0.22310,  -0.78115,   0.71715,  -0.81099,  -0.86797,   0.93750,  -0.93750,   0.81229,   0.81748
  -0.23790,  -0.58470,  -0.75448,   0.93750,   0.93750,   0.86755,   0.79935,   0.24663,   0.93750,  -0.56818
  -0.26013,   0.08889,   0.93750,  -0.52733,  -0.36280,   0.66545,  -0.56894,   0.16706,  -0.29364,  -0.14054
  -0.06565,  -0.86439,   0.42267,  -0.08519,   0.93750,   0.44598,   0.35460,   0.93750,  -0.74006,  -0.03808
  -0.10953,   0.12958,   0.68820,   0.21683,  -0.63248,   0.66696,  -0.05939,  -0.69921,  -0.15733,   0.11433
   0.75438,   0.59281,  -0.76838,   0.42820,   0.03755,   0.12703,   0.71828,   0.58159,   0.81294,   0.59808
  -0.87403,   0.93750,   0.71279,  -0.93750,  -0.93750,   0.75815,  -0.93750,   0.93750,  -0.73915,   0.73054
   0.50723,   0.93750,  -0.23780,  -0.24973,   0.43163,   0.24105,   0.53924,   0.50915,  -0.41589,  -0.75121
  -0.80622,  -0.19750,  -0.67286,   0.70650,   0.02556,  -0.64266,   0.10199,  -0.58451,   0.07988,   0.93750
  -0.58967,   0.35837,  -0.93750,   0.00860,  -0.86254,   0.05540,  -0.01435,   0.39766,   0.53427,   0.93750
   0.55559,  -0.31562,  -0.42673,   0.03442,   0.76699,  -0.60702,  -0.21253,   0.56189,   0.35646,   0.23070
  -0.27335,  -0.52418,  -0.59254,  -0.58627,  -0.29021,   0.93750,   0.17503,  -0.13066,   0.34602,  -0.75565
   0.23626,  -0.37806,   0.29444,   0.46187,   0.58149,   0.05858,  -0.11791,   0.22330,   0.15250,  -0.20909
   0.61237,  -0.46231,  -0.86172,  -0.93750,   0.45281,  -0.93750,   0.29176,  -0.30509,   0.74564,   0.86768
   0.93750,   0.10496,   0.73106,  -0.84733,   0.93750,  -0.15744,  -0.17869,  -0.79041,  -0.93750,  -0.93750
  -0.49409,  -0.70288,  -0.20932,  -0.36220,   0.07143,  -0.33298,   0.54508,  -0.45184,  -0.57979,   0.93750
  -0.93750,  -0.87467,  -0.56407,  -0.41761,   0.02387,   0.11875,   0.66932,   0.15807,   0.27914,  -0.93750
  -0.26800,   0.30705,  -0.87848,  -0.54051,   0.69515,   0.86555,   0.62794,  -0.40947,  -0.88973,  -0.93750
   0.43889,  -0.35184,   0.88123,  -0.69592,  -0.43136,   0.93238,  -0.82880,  -0.54867,   0.93750,  -0.12122
   0.48686,   0.11669,   0.85781,  -0.08502,  -0.74642,  -0.06250,   0.46768,  -0.24200,  -0.44833,  -0.35732
  -0.61970,   0.05925,  -0.65136,   0.41214,   0.57443,  -0.87664,   0.49518,  -0.93750,   0.77680,   0.36861
   0.87151,  -0.50751,   0.90256,  -0.23002,  -0.79655,  -0.19506,   0.00557,  -0.58000,  -0.29737,   0.03480
  -0.06254,   0.34505,   0.87535,  -0.86211,   0.87714,  -0.66180,   0.93750,  -0.17003,  -0.01364,  -0.09729
  -0.07765,   0.49637,   0.87233,   0.81959,  -0.81825,   0.14595,   0.93750,  -0.75400,  -0.75548,  -0.93750
  -0.13151,   0.93750,   0.81694,   0.93750,   0.93543,  -0.54845,   0.81386,   0.93750,   0.80428,  -0.81046
  -0.93750,  -0.87075,  -0.93750,   0.79801,   0.93750,   0.93750,   0.21915,  -0.35160,  -0.51154,   0.07587
  -0.15594,   0.87730,   0.46613,  -0.93750,   0.37981,  -0.93750,  -0.30461,   0.93750,  -0.93750,   0.80100
   0.67181,  -0.71509,   0.74108,  -0.93750,   0.75452,  -0.16810,   0.93750,   0.93750,   0.52653,  -0.82960
   0.55586,   0.80809,  -0.56047,   0.15458,   0.93750,  -0.04146,   0.84103,  -0.00465,   0.50320,  -0.77573
  -0.53540,   0.93750,  -0.56276,   0.35296,  -0.78236,  -0.51066,   0.93299,  -0.20600,  -0.10588,   0.89951
  -0.50225,   0.87756,   0.39553,   0.09104,  -0.42624,  -0.44025,  -0.01427,  -0.43847,  -0.72694,   0.92063
  -0.20756,   0.11394,   0.93172,  -0.74254,  -0.02933,   0.35855,   0.87199,  -0.81867,  -0.52275,   0.61013
  -0.93750,  -0.57314,  -0.02294,  -0.61914,  -0.87010,   0.55646,  -0.11871,   0.73512,  -0.69435,  -0.10082
   0.93750,   0.01096,   0.49990,  -0.38244,  -0.61807,  -0.67675,   0.87595,   0.48112,  -0.61363,  -0.68309
  -0.86991,   0.45946,   0.93750,  -0.64265,  -0.65375,  -0.56841,  -0.71869,  -0.93750,  -0.11069,  -0.93750
  -0.20307,  -0.24169,  -0.61507,  -0.68812,   0.81373,   0.89949,  -0.01957,  -0.22910,  -0.35149,   0.93750
   0.71307,  -0.82998,   0.81950,   0.87638,  -0.25957,   0.86722,   0.68736,  -0.41053,  -0.81595,   0.46211
  -0.00695,  -0.49599,   0.14878,  -0.69440,  -0.46657,   0.08043,   0.04291,   0.86766,   0.33291,   0.87631
   0.01327,  -0.38786,   0.48669,  -0.87775,   0.93750,  -0.87917,   0.93750,  -0.93750,   0.93750,   0.43016
  -0.57899,  -0.93750,  -0.38656,  -0.93750,  -0.93750,  -0.93750,  -0.93750,  -0.87605,   0.12297,  -0.93750
  -0.82565,  -0.38180,  -0.65605,   0.65484,   0.13547,   0.18841,  -0.52711,   0.86769,   0.79581,  -0.61801
  -0.62597,   0.51888,   0.87306,  -0.50899,  -0.42452,  -0.15692,   0.66061,   0.93750,  -0.70863,  -0.66019
   0.80788,  -0.63382,  -0.58578,   0.72938,  -0.59807,  -0.24786,   0.93750,  -0.26094,  -0.68043,   0.77094
  -0.49281,   0.34274,   0.93750,   0.93750,   0.16491,  -0.29622,   0.67707,   0.83172,   0.65052,  -0.61319
  -0.70967,  -0.93750,  -0.62051,   0.68576,   0.55834,   0.64158,   0.32474,  -0.57061,   0.30938,  -0.65847
   0.93750,  -0.22201,   0.82541,  -0.82458,  -0.76428,   0.44831,   0.93750,   0.93750,   0.93750,   0.06426
  -0.55240,   0.05906,  -0.93750,  -0.38434,   0.93750,  -0.93750,  -0.46862,  -0.78789,  -0.75669,   0.93750
  -0.69004,   0.36268,  -0.72654,   0.38364,   0.36788,  -0.02544,   0.25969,  -0.27241,  -0.01252,   0.54000
  -0.21250,   0.62809,   0.06006,  -0.32136,   0.93750,   0.93750,  -0.88026,   0.93750,   0.58443,  -0.39350
   0.35813,   0.45786,  -0.03850,   0.03197,  -0.77786,  -0.06309,  -0.42257,   0.93750,  -0.83528,  -0.26471
  -0.67769,  -0.39974,   0.78600,  -0.25526,  -0.34465,   0.81195,  -0.93750,   0.12289,   0.39647,  -0.11355
  -0.50076,  -0.32928,  -0.51925,  -0.24343,  -0.30004,   0.43402,   0.60178,   0.43532,  -0.66475,  -0.86354
   0.60043,  -0.05879,   0.73560,   0.19337,  -0.65723,   0.40812,   0.65001,  -0.01575,  -0.47517,  -0.42958
  -0.76918,   0.79650,   0.87751,   0.79419,   0.93750,  -0.93750,  -0.93750,   0.70771,   0.75845,   0.00719
  -0.16913,  -0.90733,  -0.55803,  -0.81406,   0.01744,  -0.71177,  -0.45254,  -0.76594,  -0.38236,   0.93750
  -0.59408,   0.75505,  -0.74082,   0.38405,   0.84686,  -0.61799,  -0.82795,  -0.74615,  -0.27051,   0.14674
   0.90379,  -0.27360,  -0.13184,  -0.37176,   0.93031,  -0.73083,   0.28721,  -0.38700,   0.07991,  -0.32370
  -0.29198,   0.16856,   0.76726,  -0.45158,  -0.21747,  -0.48361,   0.77224,   0.45217,   0.39129,  -0.68108
   0.50622,   0.93750,  -0.73977,   0.73838,  -0.87115,  -0.80747,  -0.89144,  -0.74249,  -0.65648,  -0.62662
  -0.87751,  -0.28741,   0.35931,  -0.74836,  -0.54405,  -0.82022,  -0.93750,  -0.93750,  -0.79726,  -0.22471
   0.93750,   0.12603,  -0.94510,   0.52013,  -0.04337,  -0.03889,   0.35514,  -0.15320,  -0.41497,  -0.72493
   0.93566,  -0.24396,   0.16752,  -0.29716,   0.87606,  -0.19598,  -0.47205,   0.53397,  -0.72419,  -0.01968
  -0.92330,   0.58597,   0.47219,   0.55684,   0.27759,  -0.10772,  -0.69690,   0.85736,   0.87773,   0.07525
  -0.93750,   0.82111,  -0.72501,  -0.33732,   0.93750,  -0.84041,   0.93750,   0.93750,  -0.93750,  -0.88030
  -0.87894,   0.61679,   0.34620,   0.93750,   0.24312,   0.70554,  -0.93750,  -0.25031,  -0.93750,   0.85176
   0.79825,  -0.18353,   0.17027,   0.65149,  -0.28836,   0.38325,   0.72236,  -0.46298,   0.03097,  -0.53168
  -0.64458,   0.92872,   0.02968,   0.40584,   0.19671,  -0.14421,  -0.46525,  -0.01127,   0.92237,  -0.68614
  -0.56695,   0.50821,  -0.76191,   0.41034,   0.67516,   0.59125,   0.16685,  -0.08117,   0.09416,  -0.88206
   0.87589,  -0.36314,   0.47306,   0.08291,  -0.45418,  -0.33737,   0.61599,  -0.68747,  -0.19062,   0.46081
  -0.93750,  -0.57438,   0.41962,  -0.85437,   0.25741,  -0.93750,  -0.80297,   0.93750,  -0.80215,  -0.93750
   0.87044,  -0.65536,  -0.93750,   0.58557,  -0.93750,  -0.07292,  -0.59169,   0.00169,   0.30590,   0.32316
  -0.01883,   0.75167,  -0.81038,  -0.84528,   0.88323,  -0.57806,  -0.26041,   0.50382,   0.01962,  -0.11901
  -0.57419,   0.17136,   0.71680,   0.48481,   0.38070,   0.16593,   0.42868,  -0.01407,  -0.82526,   0.12266
  -0.00326,  -0.67784,   0.43690,  -0.01942,   0.12542,  -0.12851,  -0.42258,  -0.06870,   0.66243,   0.93750
  -0.90213,  -0.12086,  -0.26510,  -0.88056,   0.00556,  -0.01718,   0.93750,  -0.29570,   0.34127,  -0.13073
  -0.36236,  -0.37858,  -0.93750,   0.87377,   0.93750,  -0.79888,  -0.74021,  -0.80969,  -0.81331,   0.87525
   0.73942,  -0.40416,   0.93750,  -0.42386,  -0.93750,   0.93750,   0.37303,   0.44150,   0.88020,  -0.02250
  -0.76499,  -0.26220,   0.36096,  -0.21046,  -0.55219,  -0.69866,   0.80599,   0.86439,   0.61256,   0.81094
  -0.63027,   0.83395,   0.51429,   0.13555,   0.86146,   0.60510,  -0.49540,  -0.05200,   0.36450,  -0.34933
  -0.05169,  -0.26781,   0.93750,  -0.53900,   0.23127,   0.71784,  -0.29617,  -0.15798,  -0.18672,   0.07998
  -0.87935,   0.03573,  -0.18685,   0.68812,  -0.93750,  -0.14419,  -0.30454,   0.29810,  -0.65879,   0.80419
   0.36332,  -0.56472,  -0.08566,  -0.09872,  -0.35910,  -0.47557,  -0.74254,   0.50742,  -0.54810,   0.09806
  -0.13134,   0.92565,  -0.49164,   0.79287,  -0.59536,   0.93488,   0.27672,  -0.27711,   0.67076,  -0.86582
  -0.22972,  -0.42183,   0.75485,   0.49630,  -0.72129,  -0.52346,   0.29016,   0.93750,   0.07934,  -0.23904
  -0.39560,   0.93412,   0.56802,  -0.62904,  -0.13917,  -0.51812,  -0.00763,   0.89457,  -0.29695,   0.57039
   0.14280,   0.43052,  -0.80482,  -0.00391,   0.91931,   0.50862,  -0.68912,   0.87475,  -0.20311,  -0.88202
   0.00140,   0.93750,  -0.93750,  -0.93750,  -0.42383,   0.93750,  -0.27210,  -0.79771,  -0.26360,   0.72129
  -0.57391,   0.93750,  -0.46632,   0.93750,  -0.74882,   0.82003,   0.41180,  -0.48712,   0.37044,  -0.93750
   0.23612,  -0.31058,  -0.18253,  -0.93750,   0.27929,   0.02924,  -0.40927,  -0.25411,  -0.35619,   0.53347
   0.93750,   0.49652,  -0.54799,   0.81496,   0.93423,  -0.08703,  -0.36019,   0.37332,  -0.76034,   0.93750
  -0.25005,  -0.81627,  -0.57402,  -0.36280,   0.30523,   0.50420,   0.70450,   0.01283,  -0.29520,   0.44451
   0.93750,  -0.47928,  -0.86422,   0.64542,   0.83636,   0.87316,  -0.75564,   0.80403,  -0.10606,  -0.75510
  -0.20480,   0.46480,  -0.03949,   0.31904,  -0.54394,   0.45363,  -0.57152,   0.80169,  -0.42126,   0.32646
   0.36955,  -0.87576,   0.01599,   0.56315,   0.93750,  -0.71959,  -0.74055,   0.15597,   0.11311,  -0.19609
   0.04315,  -0.21255,  -0.19004,   0.70507,   0.15776,  -0.36119,   0.79561,  -0.01894,   0.07575,   0.12741
   0.47450,  -0.68525,   0.88979,   0.93750,   0.27005,  -0.37196,  -0.12527,  -0.49424,   0.19559,   0.40720
   0.63398,   0.74207,   0.46547,  -0.64546,  -0.89032,  -0.86965,   0.68886,  -0.81401,   0.75121,   0.12314
   0.67596,   0.93750,   0.93750,   0.93750,  -0.93750,  -0.80611,  -0.49364,  -0.37983,   0.26732,   0.31590
   0.51024,   0.31849,   0.93750,  -0.92222,   0.74723,  -0.74940,  -0.75672,  -0.74636,  -0.73631,   0.43700
  -0.46448,  -0.20013,  -0.70894,  -0.20368,   0.91538,  -0.49754,   0.88023,  -0.19834,   0.64364,  -0.55809
   0.32500,   0.12346,  -0.93750,   0.12862,   0.07047,  -0.93750,   0.54089,   0.34610,   0.65850,  -0.50540
  -0.74020,   0.44913,  -0.60813,  -0.42977,  -0.47393,  -0.12819,   0.42878,   0.93750,   0.26285,   0.34656
   0.93750,   0.93750,  -0.61412,  -0.93750,  -0.74362,  -0.39956,  -0.35888,   0.43960,  -0.93750,   0.85123
   0.25432,  -0.12065,   0.86640,  -0.18666,   0.57467,   0.12637,  -0.74668,  -0.33096,  -0.81912,  -0.56275
  -0.69654,  -0.90839,   0.75390,  -0.57354,   0.93750,  -0.55566,   0.43655,  -0.87749,   0.91065,  -0.16372
  -0.88303,   0.76436,  -0.93750,  -0.47777,  -0.25385,   0.17212,   0.16969,   0.59166,   0.69753,   0.62860
   0.61623,  -0.55732,  -0.64738,   0.83942,  -0.46917,   0.72442,  -0.76299,  -0.37850,  -0.35076,   0.10721
  -0.01382,   0.67921,  -0.93602,   0.68636,  -0.49051,   0.30038,   0.17173,  -0.10115,  -0.87526,  -0.65452
   0.37377,   0.10473,  -0.53902,   0.86127,  -0.34442,  -0.08390,  -0.17008,  -0.16036,   0.77737,   0.23437
  -0.56691,  -0.77171,   0.88674,  -0.06323,   0.51317,   0.07362,   0.87773,   0.93750,  -0.85835,  -0.57844
   0.16883,  -0.16734,  -0.64780,  -0.19303,  -0.78113,  -0.68763,   0.92035,  -0.34536,  -0.00339,  -0.24678
   0.87836,   0.09569,  -0.09548,  -0.68063,  -0.22827,   0.02062,   0.86854,  -0.74654,  -0.03002,  -0.03369
   0.21300,   0.29209,  -0.35986,   0.52399,   0.92716,   0.19059,  -0.11376,  -0.68364,  -0.35821,  -0.75738
   0.93750,  -0.68136,  -0.66659,   0.45017,  -0.82130,  -0.00643,  -0.80110,  -0.93750,  -0.42525,   0.21965
   0.74487,   0.62985,  -0.35774,  -0.24213,   0.93750,  -0.03755,   0.57745,   0.63242,  -0.69008,  -0.12856
  -0.59819,  -0.93750,   0.50234,  -0.27680,  -0.05371,   0.93750,   0.93750,  -0.80597,  -0.66353,   0.90150
   0.87085,   0.93750,   0.93750,   0.93750,  -0.74132,  -0.75602,  -0.65142,  -0.45942,   0.93750,  -0.93750
   0.87439,   0.60472,  -0.65749,   0.52794,  -0.18463,   0.29559,   0.31077,  -0.02935,  -0.24374,  -0.32110
  -0.65787,   0.86029,  -0.27742,  -0.13121,   0.69973,  -0.24940,   0.11453,  -0.55374,   0.17343,   0.68195
  -0.27525,   0.57877,  -0.03413,  -0.42043,  -0.65131,   0.93750,   0.14732,   0.55081,   0.86983,   0.93750
  -0.30226,   0.19249,   0.15138,   0.51308,  -0.62249,   0.63325,  -0.62634,  -0.73627,   0.59034,  -0.73908
   0.16229,  -0.44370,   0.48042,  -0.78268,   0.29800,  -0.50336,  -0.21235,   0.72947,  -0.51322,   0.82319
  -0.18440,   0.06618,  -0.44862,   0.58902,  -0.01955,  -0.74727,   0.58318,  -0.62350,  -0.63219,  -0.69486
   0.93750,   0.19352,   0.05241,   0.69739,   0.53637,   0.04450,  -0.15018,  -0.93750,  -0.66716,   0.11507
   0.93750,   0.11311,   0.43147,  -0.03957,   0.19032,   0.23146,  -0.57752,  -0.14742,  -0.93422,  -0.26422
  -0.59406,  -0.75887,   0.50101,   0.09621,  -0.57153,  -0.80140,  -0.82946,   0.60750,  -0.75058,   0.48482
   0.78522,   0.64171,   0.38782,   0.93750,  -0.21111,  -0.78733,   0.60871,  -0.35573,  -0.32692,   0.93750
  -0.67831,  -0.03090,   0.67801,   0.00160,  -0.11762,  -0.87188,   0.23809,  -0.88085,  -0.55713,   0.61583
  -0.41378,  -0.03627,   0.16934,  -0.31831,  -0.43960,   0.93750,  -0.58315,   0.07438,   0.42240,  -0.11810
  -0.91356,   0.88331,  -0.87748,   0.79835,  -0.54362,   0.39891,  -0.15990,  -0.86823,   0.37041,   0.69677
  -0.69787,   0.93750,  -0.65346,   0.24524,   0.17316,  -0.86325,   0.58294,  -0.12309,  -0.31519,   0.93750
  -0.82543,   0.75803,   0.93750,  -0.13895,   0.34943,  -0.20887,  -0.48370,  -0.20807,  -0.18360,  -0.22548
   0.79992,  -0.01369,  -0.48007,  -0.57112,  -0.30458,   0.08184,  -0.49772,   0.61780,   0.67330,   0.28569
   0.87403,  -0.17810,   0.93750,  -0.34286,   0.00345,  -0.46026,  -0.45732,   0.93750,   0.86925,   0.50668
   0.00040,  -0.54240,  -0.45369,  -0.58138,   0.24408,  -0.18591,   0.87261,   0.03977,  -0.61784,  -0.46153
   0.25442,  -0.54590,  -0.58315,   0.58181,  -0.93750,  -0.06825,   0.93750,   0.74434,  -0.19640,   0.93750
  -0.74365,   0.87261,  -0.26820,  -0.46460,  -0.47335,   0.66324,   0.32489,   0.85988,   0.88231,  -0.64943
   0.53864,   0.00950,   0.20703,  -0.79124,   0.93750,   0.31441,   0.27679,  -0.45699,  -0.51596,   0.41975
   0.07805,   0.86018,   0.93750,  -0.34400,  -0.60514,  -0.49245,  -0.72540,   0.24040,  -0.23143,   0.39379
  -0.42295,  -0.75883,  -0.87572,   0.75649,  -0.69889,   0.27616,   0.93750,   0.33276,  -0.05512,   0.87593
  -0.27302,   0.51251,   0.81101,  -0.39463,   0.80083,  -0.44011,   0.59281,  -0.54045,   0.54522,   0.65924
  -0.72735,   0.75374,  -0.93750,  -0.84281,   0.14990,   0.17460,  -0.53029,   0.38479,  -0.55594,  -0.93750
   0.75791,  -0.38146,  -0.73412,   0.93750,   0.18155,  -0.93750,  -0.35263,  -0.23851,  -0.93750,   0.93750
   0.93750,  -0.88005,  -0.61549,   0.76959,  -0.77823,  -0.93750,   0.93750,  -0.25087,  -0.54087,  -0.14340
   0.39483,   0.91704,  -0.82362,  -0.93750,  -0.32816,  -0.93750,   0.70252,   0.06850,   0.33143,   0.34936
  -0.45611,   0.27402,  -0.51345,  -0.90033,   0.02689,  -0.92745,   0.93750,   0.63845,   0.64435,   0.93750
   0.54965,   0.05761,  -0.56033,   0.47298,   0.64010,  -0.93750,  -0.14289,  -0.93750,   0.62804,  -0.54089
   0.93750,  -0.67309,  -0.50658,  -0.78308,   0.16134,  -0.93750,   0.64274,  -0.93750,   0.41825,   0.06903
  -0.16981,  -0.01412,  -0.50185,  -0.44012,   0.14116,   0.88475,  -0.18150,  -0.60349,  -0.92567,  -0.54926
   0.93750,   0.04158,   0.93750,  -0.83999,   0.33346,  -0.89745,  -0.39231,   0.52632,  -0.25469,   0.93076
  -0.19906,  -0.93750,   0.93750,   0.17173,   0.87495,  -0.87958,   0.76266,   0.31391,  -0.17886,   0.87286
  -0.75068,  -0.67954,   0.93702,  -0.04847,  -0.88750,  -0.32242,  -0.41383,  -0.51693,  -0.01035,   0.93576
  -0.93750,  -0.41408,  -0.91444,  -0.69854,   0.31106,  -0.53866,  -0.26897,  -0.93750,  -0.23665,  -0.52923
   0.69264,   0.87215,  -0.48626,   0.82277,  -0.39455,   0.50410,   0.50672,   0.09774,  -0.38265,  -0.55043
   0.87407,   0.36968,  -0.76678,  -0.35400,  -0.71379,   0.17853,   0.85723,  -0.13430,   0.86160,  -0.22684
   0.48953,  -0.34167,  -0.20762,   0.93750,  -0.19321,  -0.91049,  -0.21481,  -0.46028,  -0.23651,  -0.14330
  -0.25025,   0.39363,  -0.69065,   0.60849,   0.75795,   0.32315,   0.43610,   0.53246,  -0.10107,  -0.78285
  -0.33819,  -0.42216,   0.68339,   0.68009,  -0.75444,  -0.47479,  -0.18531,  -0.20793,  -0.11276,   0.23094
  -0.60482,  -0.77199,   0.03313,  -0.81182,  -0.08081,   0.19261,  -0.46216,  -0.61513,   0.41925,   0.93750
  -0.63508,   0.68288,   0.22096,   0.32187,  -0.31631,  -0.71453,  -0.93750,   0.21907,   0.71147,   0.12365
  -0.60998,  -0.20112,  -0.72508,   0.60393,  -0.56976,   0.69181,   0.93750,  -0.82291,  -0.37529,  -0.45020
  -0.28691,   0.01127,  -0.54012,  -0.30301,   0.93750,   0.23481,  -0.62115,  -0.30694,   0.30308,   0.45692
  -0.20007,  -0.92152,  -0.93750,  -0.80339,  -0.93750,  -0.84024,   0.93750,   0.79904,  -0.89029,   0.63272
  -0.88664,   0.52072,  -0.65673,  -0.39028,   0.80089,  -0.02845,  -0.05750,  -0.24232,   0.67293,  -0.56005
  -0.21781,   0.30701,   0.93750,   0.35476,   0.81764,  -0.62870,  -0.09576,   0.34766,  -0.93750,   0.88875
   0.93750,  -0.17026,  -0.93750,  -0.15739,  -0.52401,  -0.68674,   0.93750,  -0.15106,  -0.46406,  -0.40006
   0.46282,  -0.81605,  -0.06844,  -0.20458,  -0.13196,   0.70606,   0.14218,  -0.50488,  -0.13972,   0.93503
  -0.62451,   0.14952,  -0.74910,  -0.23105,  -0.63909,   0.89649,   0.87771,  -0.66845,  -0.55779,  -0.61560
   0.11802,  -0.34399,  -0.87989,   0.63408,   0.74772,  -0.55046,  -0.49183,   0.74901,  -0.81951,   0.36722
   0.16056,  -0.66815,   0.93750,   0.08031,  -0.73570,   0.93750,  -0.33799,  -0.93750,   0.29131,  -0.93750
   0.87935,   0.93750,  -0.57433,  -0.35254,  -0.20027,  -0.55384,  -0.06595,  -0.06716,   0.35635,  -0.87637
  -0.61120,  -0.15830,   0.92611,   0.05694,   0.38988,  -0.40881,  -0.04426,  -0.30393,  -0.08393,   0.35656
  -0.44160,   0.93350,   0.93750,   0.35107,  -0.45824,  -0.80571,  -0.10842,  -0.53544,  -0.71132,  -0.75271
  -0.23641,   0.87379,   0.12109,  -0.05646,  -0.33839,  -0.04671,   0.26935,  -0.09960,  -0.09282,  -0.93750
   0.90270,  -0.93750,   0.93750,   0.93750,  -0.88391,   0.93750,   0.93750,  -0.93750,   0.35781,  -0.70360
  -0.30218,   0.32081,   0.75652,   0.86917,   0.24966,  -0.73281,  -0.45469,  -0.27538,  -0.32307,   0.44445
  -0.73300,   0.76959,  -0.00810,   0.68090,  -0.08981,   0.06421,   0.35482,  -0.38212,  -0.17372,   0.35483
  -0.40425,  -0.13047,  -0.15052,   0.92914,  -0.09209,  -0.89183,   0.67768,  -0.52082,   0.39922,   0.02162
  -0.34674,   0.24327,  -0.87311,  -0.57295,  -0.44465,   0.71301,  -0.91978,  -0.35142,  -0.93750,  -0.93750
  -0.10943,   0.24667,  -0.25452,   0.27870,   0.19817,  -0.30192,   0.88071,  -0.69800,   0.76439,   0.40781
   0.40925,   0.93750,  -0.76750,  -0.61741,  -0.61340,   0.21191,  -0.50217,   0.44737,  -0.72131,   0.81619
   0.76405,  -0.37500,   0.49703,  -0.44800,  -0.35182,   0.33619,   0.48264,   0.16903,  -0.00679,   0.07486
  -0.02835,  -0.35580,  -0.14206,   0.23718,   0.28029,  -0.33685,   0.24592,  -0.05505,   0.47466,  -0.31666
  -0.61728,   0.86053,  -0.15681,   0.37226,  -0.16200,  -0.86838,  -0.89818,   0.93750,  -0.23514,   0.39023
  -0.50332,  -0.40826,   0.93727,  -0.43716,  -0.64259,  -0.18625,  -0.50232,  -0.39864,   0.55152,  -0.44922
  -0.45072,  -0.03213,  -0.23971,   0.81483,   0.68388,   0.16869,  -0.41649,  -0.29893,   0.18080,  -0.30963
   0.35679,  -0.08371,   0.44703,  -0.37476,   0.82995,   0.63826,   0.12673,   0.16330,   0.46225,  -0.13037
   0.27490,   0.60953,   0.93750,  -0.93750,   0.93750,  -0.93750,  -0.93750,  -0.54443,   0.35583,   0.93750
  -0.80137,   0.86738,  -0.93750,   0.82082,   0.69758,   0.69784,  -0.76906,   0.60838,  -0.15436,  -0.81529
   0.09019,  -0.54961,  -0.91797,  -0.20483,   0.40259,  -0.56058,   0.86718,  -0.59126,   0.93750,   0.41649
  -0.38498,   0.11756,  -0.84142,  -0.54641,   0.28328,   0.79961,  -0.35136,   0.48238,   0.38282,  -0.06511
  -0.58403,   0.36553,   0.48012,   0.40726,  -0.50027,  -0.05699,   0.81968,  -0.43948,  -0.43619,   0.68057
   0.59453,  -0.09156,   0.67693,  -0.68827,  -0.27615,   0.83936,  -0.03549,  -0.51336,  -0.09015,   0.15748
   0.93750,  -0.75488,  -0.19359,   0.93750,   0.93750,  -0.93750,   0.93750,   0.88027,  -0.21455,   0.87204
  -0.15677,  -0.01687,  -0.66701,  -0.10734,  -0.36260,  -0.44263,   0.74513,   0.23924,  -0.79655,  -0.72360
  -0.93750,  -0.90182,  -0.64755,  -0.90757,  -0.90395,   0.21082,  -0.69752,   0.34853,  -0.46910,  -0.93750
   0.81256,   0.56066,  -0.93750,  -0.41979,  -0.63517,   0.25952,  -0.03110,   0.07029,  -0.79241,  -0.93750
  -0.80872,   0.65006,  -0.06499,  -0.35278,   0.48570,   0.87879,  -0.21130,  -0.56678,  -0.44666,   0.62522
  -0.51034,  -0.80368,  -0.93750,   0.46783,   0.68710,   0.04062,  -0.87435,   0.93750,   0.03119,  -0.16424
  -0.93111,   0.47292,   0.83260,   0.93118,  -0.93750,  -0.88457,  -0.73756,   0.75619,   0.17831,   0.23168
   0.81372,  -0.87775,  -0.83466,  -0.03847,   0.30064,  -0.04426,  -0.93750,   0.93750,   0.65816,   0.26461
  -0.74218,   0.14805,   0.38308,   0.75939,  -0.07888,  -0.24016,  -0.65583,  -0.15713,   0.56474,  -0.27818
   0.87461,  -0.55660,  -0.86630,   0.60791,  -0.93750,   0.93750,  -0.93750,  -0.27867,   0.61963,  -0.15850
   0.87321,   0.76797,   0.51220,  -0.80914,  -0.54260,   0.83926,  -0.70672,  -0.00207,  -0.86006,  -0.38524
   0.87500,   0.08119,   0.53419,  -0.23920,  -0.62310,  -0.20454,   0.79205,   0.33103,  -0.76288,  -0.57532
   0.07190,   0.93750,  -0.88146,   0.08738,  -0.87013,  -0.93750,  -0.87459,  -0.74830,  -0.93750,  -0.63380
  -0.87742,  -0.93750,  -0.02981,  -0.93750,   0.22437,   0.07974,  -0.93750,   0.84740,  -0.93750,   0.06341
  -0.18656,   0.00487,  -0.21744,   0.87679,  -0.44538,  -0.88019,  -0.52491,  -0.20785,   0.33529,   0.47206
  -0.93750,   0.93750,   0.85464,  -0.93750,   0.27223,  -0.70905,   0.75843,  -0.93750,   0.93750,  -0.44452
   0.23436,  -0.69296,  -0.77115,  -0.14250,  -0.93750,  -0.70189,   0.39740,  -0.62890,   0.34079,   0.36726
   0.10727,  -0.16359,  -0.72880,  -0.34161,  -0.09384,   0.93303,   0.35877,  -0.49197,   0.23470,  -0.68141
   0.32639,  -0.07371,  -0.06868,  -0.52050,  -0.62212,  -0.33608,  -0.57430,  -0.09969,   0.93750,  -0.03802
   0.32626,  -0.57011,  -0.37911,   0.73774,   0.04575,  -0.45791,   0.59618,   0.72462,  -0.28995,  -0.56417
  -0.00443,  -0.38623,   0.80514,  -0.37612,  -0.36259,  -0.21350,   0.74939,  -0.19234,   0.19445,  -0.04328
  -0.64206,  -0.13429,   0.93750,  -0.87514,   0.93750,   0.83255,  -0.03707,   0.14185,  -0.93750,  -0.87344
   0.80491,  -0.66512,  -0.83526,   0.18004,  -0.14056,   0.24536,  -0.04217,  -0.32065,   0.71318,  -0.56966
  -0.69943,   0.34649,  -0.87641,   0.03973,  -0.76112,   0.93750,  -0.75093,  -0.74185,  -0.61895,   0.32392
   0.93750,  -0.11871,  -0.56148,  -0.72455,   0.13551,  -0.41530,  -0.00826,  -0.39685,   0.39124,  -0.77260
  -0.80313,   0.42748,  -0.75796,   0.78772,   0.92606,   0.36531,   0.06263,   0.07800,   0.03378,   0.50986
  -0.81109,  -0.93750,   0.93750,  -0.66341,  -0.88667,   0.85309,  -0.67947,  -0.24682,  -0.93750,   0.28811
   0.61601,  -0.92924,   0.44235,  -0.71049,   0.89520,  -0.02957,   0.57261,  -0.73521,  -0.45156,  -0.36709
   0.93542,  -0.25898,  -0.92850,  -0.73913,  -0.42352,  -0.41473,   0.83440,  -0.47153,  -0.80665,  -0.16804
  -0.59114,   0.81005,  -0.03904,   0.22959,  -0.80130,  -0.60605,   0.61604,  -0.76003,   0.29904,  -0.15658
  -0.66145,   0.75250,   0.35697,   0.56451,   0.49843,   0.60064,  -0.88014,   0.26349,  -0.18439,  -0.52396
   0.09566,   0.88347,  -0.08420,  -0.30980,   0.93750,   0.93750,  -0.84883,  -0.90278,  -0.93750,  -0.80006
  -0.65344,  -0.76958,   0.54111,   0.68354,  -0.57269,  -0.47618,  -0.42630,   0.93750,  -0.93750,  -0.87876
   0.20395,   0.48982,  -0.52166,  -0.27853,  -0.45033,   0.55939,  -0.12281,   0.14966,  -0.52023,  -0.19525
  -0.93750,   0.66858,  -0.31688,   0.55038,   0.61653,   0.82031,  -0.81099,  -0.93750,   0.49255,  -0.93750
  -0.76076,  -0.10871,  -0.59127,  -0.37136,   0.93750,   0.12347,  -0.41083,  -0.45673,   0.13579,  -0.21437
   0.87757,   0.78917,  -0.63861,  -0.39385,  -0.05447,  -0.23622,  -0.60205,  -0.47124,   0.80146,   0.85010
   0.87751,  -0.28199,  -0.93750,   0.35587,   0.93750,  -0.81191,   0.93750,  -0.59130,  -0.92041,  -0.56703
   0.12936,   0.61353,   0.51223,   0.93819,  -0.44830,  -0.86773,  -0.67160,   0.73924,   0.02828,  -0.31604
   0.57360,  -0.62999,   0.71930,  -0.84764,   0.60207,  -0.56283,  -0.49003,   0.93750,   0.65154,   0.13089
  -0.54283,  -0.30378,  -0.42921,   0.07454,   0.93750,  -0.55161,   0.13380,  -0.66792,  -0.34013,   0.55028
  -0.04885,  -0.58519,  -0.19124,   0.23545,   0.19542,  -0.55289,   0.10850,   0.09659,  -0.07382,   0.36720
  -0.93750,  -0.90586,   0.93750,  -0.87996,  -0.16447,   0.93750,  -0.78268,   0.93750,  -0.73076,   0.02122
   0.93750,  -0.27670,  -0.27116,   0.48757,  -0.93750,  -0.73225,   0.93750,  -0.34367,  -0.77887,   0.93750
  -0.37093,  -0.77337,  -0.44879,  -0.48143,  -0.33783,   0.16483,  -0.60023,  -0.61972,   0.93382,  -0.35115
  -0.60266,   0.87218,  -0.48863,  -0.26419,   0.24924,  -0.14168,   0.18126,   0.87642,  -0.05857,  -0.93750
   0.32886,   0.23191,  -0.02665,  -0.68423,  -0.34446,   0.86107,   0.73996,   0.11051,   0.20727,  -0.12224
   0.55171,   0.74010,   0.07392,   0.81876,  -0.40742,  -0.40502,   0.10713,  -0.64236,   0.67583,   0.10816
  -0.67871,  -0.68488,   0.93750,  -0.82740,  -0.60421,   0.14087,   0.87982,   0.88338,   0.77572,  -0.52642
   0.93750,  -0.34793,  -0.19034,   0.41210,  -0.39788,   0.78542,   0.02799,   0.34041,  -0.34886,  -0.41952
   0.33963,  -0.50746,  -0.10958,  -0.66162,   0.00127,   0.72580,   0.88339,   0.36704,   0.11857,   0.27024
  -0.74428,  -0.69026,  -0.93750,  -0.40229,   0.48124,   0.50577,   0.53918,   0.61018,   0.87105,   0.52706
   0.02219,   0.47478,   0.57543,  -0.15151,  -0.93750,  -0.87369,  -0.42684,   0.93750,  -0.19786,   0.45834
  -0.22556,   0.93527,   0.41813,  -0.47021,  -0.16206,  -0.39195,   0.48354,  -0.33145,   0.93750,  -0.80728
   0.45574,   0.55352,   0.02097,   0.80849,   0.84121,  -0.29503,  -0.35182,  -0.69558,  -0.04206,  -0.71053
   0.74017,  -0.18833,   0.92884,   0.75674,  -0.93750,  -0.32255,   0.67589,   0.67669,  -0.62607,  -0.93750
   0.80109,   0.77717,   0.31352,  -0.12222,  -0.12095,  -0.14650,   0.93750,   0.35410,  -0.49307,  -0.69102
  -0.18848,  -0.09189,  -0.19442,   0.93750,  -0.89148,   0.25881,   0.11397,  -0.93750,   0.88051,  -0.68910
  -0.87261,  -0.86100,  -0.53038,   0.64273,  -0.54720,  -0.46368,  -0.29518,   0.45845,   0.91934,   0.80387
  -0.51381,   0.60606,  -0.70784,   0.93750,  -0.93750,  -0.93750,  -0.93750,  -0.93750,   0.92135,   0.93750
   0.93750,   0.93750,  -0.04494,   0.29700,   0.08839,   0.21912,  -0.37449,  -0.48008,  -0.52103,   0.87878
  -0.65837,  -0.14020,  -0.71856,  -0.93750,   0.93750,   0.10882,   0.66676,  -0.33189,   0.93750,  -0.50563
  -0.30107,  -0.67289,  -0.80596,  -0.85888,  -0.29507,   0.06829,   0.86820,  -0.58700,  -0.43077,   0.07946
  -0.93750,  -0.30923,   0.37821,  -0.51920,   0.42651,   0.93750,  -0.31429,  -0.38661,   0.68952,  -0.93750
  -0.20137,   0.18861,   0.88692,  -0.37463,   0.17981,  -0.79074,   0.07949,   0.20884,  -0.17440,   0.18313
   0.62080,   0.29031,  -0.56166,   0.19935,   0.88349,   0.00676,  -0.64087,   0.75207,   0.09731,   0.60538
  -0.63547,  -0.11617,   0.80480,  -0.93285,   0.70480,  -0.93750,  -0.82026,   0.87869,  -0.74941,   0.80036
  -0.41762,   0.24077,  -0.30775,  -0.47362,   0.46367,  -0.51591,   0.69950,   0.61701,  -0.30086,   0.30784
  -0.53856,  -0.42742,  -0.70150,   0.67887,  -0.80862,  -0.28746,  -0.12492,  -0.66586,   0.02003,  -0.39278
  -0.75446,   0.25508,  -0.49924,  -0.42291,   0.93750,   0.20190,  -0.89166,   0.42781,   0.24049,  -0.11818
   0.65045,   0.37807,   0.48894,  -0.34672,  -0.40735,  -0.34654,  -0.74296,   0.44710,   0.74630,   0.16876
   0.61211,   0.44334,  -0.61936,  -0.60022,  -0.66704,   0.93750,  -0.69155,  -0.85295,  -0.72263,   0.57450
   0.30367,  -0.54348,  -0.59816,   0.82484,   0.57587,  -0.60663,  -0.70779,  -0.13935,   0.60219,  -0.23307
   0.49525,   0.09985,   0.41998,   0.86249,  -0.10726,   0.08135,   0.09161,  -0.00476,   0.40974,  -0.14567
   0.93750,   0.01361,   0.87194,   0.31762,   0.63777,  -0.50395,   0.23335,  -0.61188,  -0.92019,  -0.56786
  -0.39367,  -0.02160,  -0.35077,   0.73334,  -0.26978,  -0.69991,   0.86715,  -0.04572,  -0.56747,  -0.42123
  -0.09026,  -0.74950,  -0.83150,  -0.69175,   0.74835,   0.40437,   0.84815,   0.93750,  -0.29377,   0.93750
   0.14722,  -0.89178,   0.09335,   0.56941,   0.63218,  -0.93750,  -0.90098,   0.93750,   0.60149,  -0.80110
  -0.47422,  -0.88061,   0.93750,  -0.74682,   0.93380,   0.87648,  -0.24653,   0.93750,   0.62152,   0.12802
  -0.78888,   0.41948,  -0.39814,   0.10154,   0.93750,  -0.93671,   0.93750,   0.86637,  -0.38377,   0.36330
   0.85841,   0.93750,  -0.46697,   0.93750,   0.47782,  -0.93750,   0.42580,   0.61812,  -0.76142,  -0.93750
   0.26719,   0.93750,   0.72917,  -0.64798,   0.23063,   0.63320,   0.31340,  -0.65128,  -0.72137,  -0.60907
  -0.36586,  -0.33630,  -0.06333,   0.27964,   0.30037,   0.11549,   0.47911,   0.59083,   0.28108,  -0.52265
   0.48875,  -0.54175,   0.93750,   0.43732,  -0.59030,  -0.81084,   0.93750,  -0.62282,  -0.43024,  -0.29705
  -0.73037,   0.63068,  -0.41037,   0.72985,  -0.63944,   0.82321,  -0.55086,  -0.41065,  -0.87510,  -0.89627
  -0.30594,   0.20002,  -0.23624,   0.75658,   0.10705,   0.69588,  -0.52617,  -0.63872,  -0.02433,  -0.24722
   0.36658,   0.11783,  -0.69649,   0.25770,  -0.69075,   0.07038,  -0.06933,   0.93750,   0.08277,  -0.49168
   0.11119,  -0.82188,   0.11109,   0.26806,  -0.48145,  -0.93750,  -0.44404,  -0.30533,  -0.93750,  -0.55909
  -0.18783,  -0.01048,  -0.86953,  -0.87611,   0.55403,  -0.21087,   0.93750,   0.56155,  -0.58880,  -0.53112
   0.93750,  -0.88751,  -0.53308,  -0.92446,   0.88192,   0.20596,  -0.63599,   0.88622,   0.93750,   0.53407
  -0.29329,   0.93750,  -0.35081,   0.33069,  -0.60125,   0.09612,   0.18773,   0.18146,  -0.67081,  -0.81176
  -0.40760,   0.62677,  -0.22772,   0.36943,   0.45221,   0.49493,  -0.45380,  -0.74516,  -0.61825,   0.38425
  -0.27709,   0.00788,  -0.48854,  -0.57717,   0.82609,  -0.42541,  -0.28371,  -0.86025,   0.47578,  -0.28432
   0.91861,   0.31749,   0.86732,   0.13290,  -0.45172,  -0.57589,  -0.49625,  -0.47738,  -0.86788,  -0.49926
  -0.18722,   0.13633,  -0.40764,   0.75507,   0.63781,   0.93750,  -0.61559,   0.28468,   0.06656,  -0.77245
   0.61666,  -0.22418,   0.09888,  -0.93750,   0.23698,  -0.29649,   0.93750,  -0.93750,  -0.93750,  -0.88277
  -0.57856,   0.21201,   0.75794,   0.88015,   0.21406,  -0.93750,   0.49305,  -0.93750,   0.61605,   0.93750
   0.82921,   0.93750,   0.93750,   0.93750,  -0.71924,  -0.58983,   0.32395,   0.93750,  -0.83020,  -0.02378
  -0.78280,  -0.15392,   0.92189,   0.63374,  -0.39786,   0.52308,  -0.65280,  -0.69017,  -0.31750,   0.93750
   0.80266,  -0.41800,   0.22876,  -0.43129,   0.01093,  -0.41284,   0.25368,  -0.55354,  -0.16104,   0.04307
   0.70412,   0.21632,  -0.93226,   0.75269,   0.25319,   0.06011,   0.71172,  -0.10259,  -0.56517,   0.79668
  -0.07016,  -0.19969,   0.54448,  -0.64203,  -0.30801,   0.93750,   0.33346,   0.37373,   0.93126,  -0.32662
  -0.15830,   0.13559,  -0.21141,   0.74046,  -0.32511,   0.12686,   0.64778,   0.76882,  -0.31512,   0.61882
   0.17791,   0.77953,  -0.93750,  -0.80678,   0.90941,  -0.75025,  -0.38189,   0.93750,   0.93750,   0.29106
  -0.44118,   0.64246,  -0.93728,   0.25873,   0.46350,  -0.81236,   0.28494,   0.68480,  -0.37189,  -0.86648
   0.24219,   0.07305,   0.25074,   0.24557,   0.93750,   0.28798,   0.16160,  -0.12560,  -0.92087,  -0.87245
   0.30284,  -0.36688,  -0.93750,  -0.42607,   0.93750,  -0.86893,  -0.52254,  -0.85540,   0.02839,   0.54044
  -0.56752,   0.61219,  -0.32824,   0.45521,  -0.22573,  -0.41667,  -0.82551,   0.36548,   0.22180,  -0.12141
   0.04703,   0.01316,   0.93750,  -0.73311,   0.08828,   0.72489,  -0.54845,  -0.59938,   0.00849,  -0.32583
  -0.50690,  -0.45810,   0.18591,  -0.51697,   0.93750,  -0.74851,   0.38785,  -0.79677,  -0.23836,  -0.65782
  -0.50562,   0.86570,   0.81042,  -0.25230,  -0.04382,  -0.50672,   0.00778,   0.05756,  -0.76840,  -0.42516
  -0.43774,   0.48953,   0.33719,  -0.30421,   0.48644,  -0.08593,   0.44245,   0.61274,   0.09399,   0.79087
  -0.71900,  -0.71323,   0.57502,   0.00165,  -0.38940,   0.66245,  -0.57185,  -0.32071,   0.93750,   0.02185
  -0.67815,   0.79712,   0.49221,  -0.61356,  -0.87334,   0.84031,  -0.72977,  -0.29403,   0.87877,  -0.93750
  -0.67577,  -0.65901,   0.72722,  -0.35132,   0.12133,  -0.20547,   0.11859,   0.11099,   0.55734,   0.92363
   0.08797,  -0.06690,  -0.89562,   0.75820,  -0.08528,   0.86813,  -0.67827,  -0.52603,   0.27889,  -0.13382
   0.03490,   0.14344,   0.01622,   0.93750,  -0.88315,  -0.31970,  -0.36629,   0.93750,  -0.80398,   0.93750
  -0.93750,   0.93750,  -0.13591,   0.93750,   0.54749,  -0.87088,  -0.93750,  -0.84881,   0.65892,  -0.80918
   0.40846,  -0.40484,   0.80156,   0.31373,   0.86226,  -0.09784,  -0.44864,  -0.70150,  -0.25530,   0.07020
   0.53983,   0.06096,   0.17780,   0.52381,   0.66919,   0.81866,   0.30202,  -0.16614,   0.93750,  -0.59063
   0.67256,   0.53122,  -0.67487,  -0.81409,  -0.85956,   0.34264,   0.79950,   0.87248,   0.41404,   0.82154
  -0.01881,   0.93746,   0.04123,  -0.66638,   0.19422,   0.33445,   0.26956,   0.24626,  -0.58452,  -0.82144
  -0.06514,   0.15408,   0.81723,   0.87228,  -0.15936,  -0.00182,   0.66777,  -0.37906,  -0.12848,   0.36573
  -0.32596,  -0.75316,   0.60518,  -0.63825,  -0.22015,  -0.41259,   0.40113,   0.62917,   0.15276,   0.29028
  -0.83044,   0.92642,   0.35055,   0.21358,  -0.68333,   0.93750,   0.12717,  -0.56097,  -0.86539,  -0.93750
   0.92202,   0.08160,   0.55242,   0.66399,  -0.00956,  -0.05349,  -0.00805,  -0.19799,   0.62869,   0.14643
  -0.66199,  -0.93750,   0.40697,  -0.48588,  -0.93750,   0.10996,  -0.81780,   0.71913,   0.07287,  -0.93750
   0.93750,  -0.63034,   0.93750,   0.93750,   0.93750,   0.01023,  -0.67627,  -0.87281,  -0.93750,  -0.87692
  -0.31117,  -0.72752,  -0.71898,  -0.55048,  -0.09025,   0.93750,  -0.78036,   0.59541,   0.50539,   0.06212
  -0.47186,   0.93750,  -0.09691,   0.93750,   0.93750,   0.93750,  -0.24685,  -0.27285,  -0.93750,  -0.87642
   0.22571,   0.13864,  -0.26560,   0.09396,  -0.75545,  -0.72754,  -0.13071,   0.52384,   0.16597,   0.77310
   0.18568,  -0.56210,   0.01864,   0.04059,  -0.26648,  -0.50211,   0.26586,  -0.23199,  -0.03855,   0.82403
   0.07306,   0.67312,  -0.87293,  -0.86437,   0.33630,   0.93750,   0.88063,   0.08975,   0.57429,  -0.60619
   0.51329,   0.80953,  -0.75000,  -0.54960,  -0.41037,  -0.08288,  -0.17970,  -0.12837,  -0.14112,   0.06749
   0.66174,  -0.52430,  -0.89553,   0.91988,  -0.56744,   0.69652,  -0.76148,  -0.93750,   0.87956,   0.30992
   0.93750,  -0.93750,   0.18922,   0.80085,   0.71662,  -0.93750,  -0.44951,   0.10634,  -0.93750,  -0.00178
  -0.75407,  -0.93750,   0.54465,   0.26641,   0.86910,  -0.93750,   0.74045,   0.47037,   0.69263,  -0.08256
  -0.52960,  -0.33127,  -0.40722,   0.84952,  -0.09847,   0.86941,  -0.45881,  -0.77853,  -0.14222,  -0.00808
  -0.39082,  -0.44838,   0.51721,   0.57624,   0.54612,   0.41761,   0.51002,   0.45793,  -0.50484,  -0.71735
   0.93750,  -0.75968,  -0.22410,  -0.69237,   0.92579,  -0.84193,   0.46342,   0.55008,  -0.02308,  -0.11410
   0.45439,  -0.65514,   0.50348,   0.08081,   0.46671,  -0.18919,  -0.30019,   0.92084,  -0.23326,   0.82971
   0.38373,   0.32247,  -0.64678,  -0.74881,   0.22992,  -0.62530,  -0.78946,   0.86149,  -0.77030,   0.35191
   0.08170,   0.48942,   0.46449,   0.01812,   0.93682,  -0.61706,   0.92096,  -0.31304,   0.04252,   0.24997
  -0.59236,   0.67329,   0.05603,   0.11904,  -0.21094,  -0.69369,   0.46697,   0.51434,   0.59377,  -0.45088
  -0.72536,   0.93750,  -0.93750,   0.90601,   0.39286,   0.88270,   0.34026,   0.93750,   0.40741,  -0.80295
  -0.67099,   0.44844,   0.86177,  -0.49706,   0.74237,  -0.29262,  -0.17521,   0.77910,  -0.46763,   0.26622
  -0.31824,   0.09620,  -0.36537,   0.80146,  -0.72326,   0.26342,   0.93750,   0.82096,  -0.17132,   0.62765
   0.73122,   0.07544,   0.48782,  -0.86376,   0.32521,  -0.05033,  -0.45976,   0.32473,  -0.63042,  -0.13740
  -0.41171,  -0.82633,   0.00103,  -0.76542,   0.21800,  -0.62473,  -0.88401,  -0.56429,   0.93224,  -0.30452
  -0.93750,   0.21307,   0.74852,   0.18815,  -0.93750,  -0.55672,   0.22736,  -0.44755,  -0.33943,  -0.80551
   0.02461,  -0.70058,   0.15526,   0.93750,   0.93750,  -0.80075,   0.93702,   0.53815,   0.93750,   0.20939
   0.31297,   0.26477,  -0.15411,   0.79897,  -0.01811,  -0.93750,  -0.42460,   0.86857,  -0.03830,  -0.02300
   0.93750,   0.93750,  -0.35978,  -0.93750,  -0.93750,   0.31560,   0.74666,   0.78885,  -0.09291,   0.93750
  -0.26741,   0.93750,   0.93750,   0.22788,   0.65704,   0.74617,  -0.19816,   0.42774,   0.07613,  -0.56769
   0.88096,  -0.93750,  -0.25839,  -0.56424,  -0.01871,  -0.79759,  -0.83086,  -0.70783,   0.62706,   0.80481
  -0.12030,  -0.85042,   0.31519,   0.88254,   0.93750,   0.93750,  -0.81447,  -0.87082,   0.53436,  -0.76424
  -0.23605,   0.43155,  -0.41367,  -0.16999,   0.06920,   0.33903,   0.68188,  -0.73730,  -0.24160,   0.49981
  -0.10745,  -0.37506,  -0.24384,  -0.80669,   0.93750,  -0.21252,  -0.84014,   0.78055,  -0.92625,  -0.18945
   0.93750,  -0.23267,   0.29184,  -0.68402,   0.87205,   0.61146,   0.93750,   0.76316,  -0.38116,   0.92652
   0.93750,   0.13384,  -0.46743,  -0.46181,  -0.85446,  -0.60509,  -0.30351,  -0.74825,  -0.36495,  -0.41385
   0.87044,   0.87897,  -0.35765,  -0.52834,   0.11893,   0.55422,   0.12732,   0.01291,  -0.28351,  -0.76958
  -0.20182,  -0.03394,   0.93628,   0.25381,  -0.57173,  -0.20309,   0.71885,  -0.62022,   0.48746,  -0.10757
   0.49515,   0.74607,  -0.80804,   0.17064,   0.71526,   0.92110,  -0.29092,   0.03842,  -0.92728,  -0.93750
   0.48039,   0.47141,  -0.40377,  -0.28941,   0.87383,  -0.86111,   0.93750,  -0.44642,   0.70330,  -0.69023
   0.18611,  -0.14582,   0.58671,  -0.59990,  -0.82991,  -0.93750,   0.50571,  -0.67897,   0.36756,   0.87544
  -0.72297,   0.55115,   0.67372,  -0.18542,   0.92549,   0.23275,  -0.93750,   0.38807,  -0.79518,   0.51088
   0.26197,  -0.13967,   0.64091,  -0.13953,   0.92935,   0.84254,  -0.64227,  -0.55952,   0.62138,   0.01239
  -0.42650,  -0.93750,   0.93750,   0.93750,   0.06381,  -0.93750,   0.29256,   0.93750,   0.31097,  -0.93750
  -0.93750,  -0.43971,  -0.15789,   0.68221,  -0.66480,  -0.25905,   0.29242,  -0.32986,   0.27246,  -0.64298
  -0.29983,  -0.24191,  -0.93750,  -0.26866,   0.80952,  -0.73902,   0.74956,  -0.87958,   0.57485,   0.00036
  -0.69688,  -0.52482,   0.89740,  -0.80912,   0.93750,   0.29542,  -0.82360,   0.00006,  -0.67107,  -0.93750
   0.69188,  -0.47265,   0.86825,  -0.13361,   0.88355,   0.74810,   0.93750,   0.62714,  -0.93750,  -0.38328
   0.34937,   0.06932,  -0.37266,  -0.75221,  -0.41884,  -0.78525,  -0.60509,   0.93750,   0.18214,  -0.06389
   0.93750,  -0.05557,  -0.50369,  -0.24460,   0.46140,  -0.26659,  -0.57402,  -0.15524,  -0.60370,  -0.47117
   0.93750,  -0.55751,  -0.87725,  -0.62852,  -0.56318,  -0.87045,  -0.66741,  -0.40247,  -0.38406,   0.29770
  -0.41729,  -0.08443,   0.93750,   0.93750,   0.76655,   0.82965,  -0.93750,   0.26324,   0.07948,  -0.68541
  -0.39620,   0.51673,  -0.85521,  -0.27997,  -0.41464,   0.63576,   0.24749,  -0.57522,   0.73555,   0.28374
  -0.23051,   0.24802,  -0.66311,  -0.39451,   0.86530,  -0.29338,  -0.14192,  -0.66650,   0.75647,  -0.18595
  -0.25228,  -0.53126,  -0.42064,   0.93293,  -0.71163,   0.49825,  -0.20314,   0.40613,  -0.55238,   0.37426
   0.33052,   0.17651,  -0.44456,  -0.49619,   0.17101,   0.48528,   0.12030,  -0.05843,  -0.24273,   0.61467
  -0.58740,   0.93750,   0.87241,  -0.26757,   0.60287,  -0.08922,   0.12793,  -0.81835,  -0.01965,  -0.93750
  -0.41684,  -0.93750,   0.93750,   0.18189,   0.48478,  -0.68000,  -0.78601,   0.15928,   0.45556,   0.93750
  -0.65798,  -0.06461,  -0.64499,   0.93750,  -0.44151,  -0.68551,   0.93249,   0.14094,   0.23006,  -0.43242
   0.37634,  -0.93750,   0.63776,  -0.69530,   0.93750,  -0.03390,   0.14060,   0.80803,  -0.93750,   0.93750
   0.16261,   0.19360,  -0.80941,  -0.67628,   0.45555,  -0.14610,   0.42638,  -0.21893,   0.23136,  -0.05499
  -0.93750,   0.93750,   0.23968,  -0.69485,  -0.67598,  -0.52244,  -0.90145,  -0.81094,   0.93750,  -0.57754
   0.87920,   0.45190,  -0.93750,   0.93750,   0.33142,  -0.67521,  -0.32867,   0.93230,  -0.93750,  -0.88038
  -0.17151,   0.00062,   0.10160,  -0.76501,   0.93625,  -0.32970,   0.42523,  -0.93750,   0.03888,   0.45490
  -0.86702,  -0.00613,  -0.31576,   0.10456,  -0.08714,   0.32720,  -0.46039,  -0.40211,   0.93750,  -0.10460
  -0.44372,  -0.81396,   0.87138,  -0.80758,   0.93750,  -0.20936,  -0.17972,   0.93750,   0.93750,  -0.80758
   0.87291,  -0.35189,   0.20193,   0.60954,  -0.93750,   0.86991,   0.82830,   0.93750,  -0.93750,   0.87491
  -0.83087,   0.85731,  -0.87706,  -0.81096,   0.93750,   0.93750,   0.31832,   0.13687,  -0.11396,  -0.70102
   0.92891,  -0.33912,  -0.87485,   0.13067,   0.26515,   0.93750,  -0.87288,   0.37329,  -0.55459,  -0.93750
  -0.53848,   0.29630,   0.31278,   0.06367,  -0.64314,   0.88260,   0.92816,   0.41856,   0.81863,   0.44723
   0.38476,  -0.09252,   0.40134,   0.64049,  -0.03233,  -0.45941,   0.33508,   0.07227,  -0.44769,  -0.00559
  -0.76344,  -0.04121,  -0.45793,   0.93750,   0.04880,  -0.93447,  -0.50158,  -0.02720,  -0.33358,  -0.76367
  -0.02758,  -0.00019,  -0.62247,  -0.53951,  -0.93750,  -0.80786,  -0.06295,   0.93430,  -0.08084,  -0.52550
  -0.53162,  -0.63098,  -0.30444,   0.50172,   0.86494,  -0.86055,  -0.28008,  -0.91732,   0.27211,  -0.11473
  -0.06826,  -0.10997,   0.55800,   0.63664,  -0.07961,  -0.49511,  -0.81588,  -0.62919,   0.57976,   0.00253
   0.29520,   0.05406,  -0.47837,  -0.71663,   0.27320,   0.79803,   0.87722,   0.00420,  -0.30447,  -0.51410
   0.38265,  -0.86925,   0.93750,  -0.61558,  -0.75092,   0.93750,   0.36280,   0.64289,   0.36292,  -0.23545
  -0.59637,   0.60523,  -0.62050,   0.81722,  -0.58568,   0.45573,  -0.86581,  -0.08865,  -0.07536,  -0.93750
  -0.93750,   0.32436,  -0.93750,   0.77770,  -0.33325,   0.42140,  -0.93750,  -0.62360,  -0.37805,  -0.85794
   0.26314,  -0.10717,  -0.22945,   0.88262,  -0.61507,   0.08853,   0.21303,   0.80939,   0.37286,  -0.31205
   0.40978,  -0.93750,   0.77403,   0.81670,  -0.67294,  -0.87410,   0.80308,   0.34833,  -0.79501,   0.52253
   0.31351,  -0.93750,   0.68655,  -0.08529,  -0.68806,  -0.72617,  -0.70527,   0.36055,  -0.77156,  -0.87477
   0.18112,  -0.87718,   0.82122,  -0.67680,   0.35424,   0.93750,  -0.63378,   0.57941,  -0.48377,   0.93750
   0.93391,   0.93750,   0.93750,  -0.68787,   0.93750,  -0.65119,   0.50959,  -0.31095,  -0.21442,  -0.93750
   0.34140,  -0.81388,  -0.50650,   0.93750,   0.86819,   0.47076,   0.93750,   0.13025,   0.25905,   0.53171
   0.87823,   0.24438,   0.93750,  -0.11586,   0.27685,  -0.19947,  -0.75953,   0.16461,  -0.46694,  -0.01119
  -0.25593,  -0.41834,   0.01436,  -0.40799,  -0.72332,  -0.69989,   0.03930,   0.93750,   0.11256,  -0.45369
  -0.74818,  -0.24930,  -0.40137,  -0.03808,   0.93750,  -0.24959,  -0.46999,  -0.58328,  -0.44107,  -0.50612
   0.82207,   0.87781,  -0.76121,   0.36936,   0.73341,   0.93750,   0.42118,  -0.28296,  -0.72519,  -0.45297
   0.80217,  -0.48256,   0.76150,   0.71997,  -0.85559,   0.40428,  -0.84806,   0.82033,   0.81270,   0.69325
  -0.35492,  -0.41320,   0.46895,   0.56432,   0.02956,  -0.21934,   0.85870,  -0.46676,   0.65378,  -0.61400
   0.56722,   0.67684,   0.36391,  -0.68690,  -0.45372,   0.48863,   0.37113,  -0.55621,  -0.10084,  -0.37205
   0.20505,  -0.54720,   0.93750,   0.03160,  -0.37468,  -0.12546,   0.90354,  -0.55238,  -0.92424,  -0.29815
   0.23703,   0.18653,  -0.92848,   0.80991,   0.50954,  -0.69504,   0.93375,   0.82438,   0.93750,   0.80882
  -0.61471,  -0.53830,   0.44781,  -0.14652,   0.82929,  -0.63779,  -0.67750,  -0.56775,   0.93750,  -0.05079
  -0.75495,  -0.70140,   0.16019,   0.79891,  -0.42091,  -0.93750,  -0.83619,   0.77876,   0.37737,  -0.35596
   0.04988,   0.91107,  -0.45569,   0.74332,  -0.11605,  -0.16943,   0.24310,   0.75468,  -0.70971,   0.01062
  -0.90950,   0.93750,  -0.81718,   0.54045,   0.73972,  -0.78482,  -0.93750,   0.81298,   0.58101,  -0.03098
  -0.65706,   0.36649,  -0.33373,  -0.93750,  -0.60098,   0.73008,   0.38012,   0.52695,   0.20341,   0.51319
  -0.83117,  -0.42846,   0.08235,  -0.77819,   0.06169,   0.06269,   0.87248,   0.74681,   0.62794,   0.93750
   0.93750,   0.27262,  -0.52689,  -0.08500,   0.40532,   0.41906,   0.66124,  -0.81751,  -0.87850,   0.35888
  -0.39673,   0.62595,  -0.93750,   0.93750,   0.39091,  -0.64503,  -0.12438,   0.41762,  -0.40296,   0.93750
  -0.58408,  -0.93750,   0.69884,  -0.87746,  -0.22405,   0.53253,  -0.93750,  -0.88237,   0.89692,  -0.64158
  -0.53273,  -0.40113,   0.93750,  -0.63643,  -0.37947,  -0.85914,  -0.76400,  -0.65546,  -0.14460,   0.74467
  -0.80680,   0.87108,  -0.11239,   0.48594,   0.26481,   0.41077,   0.44395,   0.18502,   0.92836,  -0.49676
   0.65534,   0.85467,  -0.43322,  -0.79740,  -0.51802,  -0.21385,  -0.50614,  -0.43510,   0.51733,   0.93750
  -0.17085,   0.47419,   0.13401,   0.74395,  -0.78378,  -0.35041,   0.68823,   0.93066,   0.70337,  -0.49001
   0.37725,   0.09073,   0.32196,  -0.53582,  -0.90234,   0.07721,   0.93750,  -0.67609,   0.25312,   0.01975
  -0.72040,   0.93750,   0.26380,  -0.24480,   0.14655,   0.81167,  -0.20772,  -0.87779,   0.45914,   0.79760
  -0.58991,   0.74160,   0.43039,  -0.63240,  -0.33332,   0.23970,  -0.39661,  -0.89320,  -0.06441,   0.54647
  -0.31478,  -0.01053,   0.66670,   0.26532,   0.47184,   0.30509,   0.65775,   0.64095,  -0.13822,  -0.04854
   0.45290,   0.24924,  -0.38547,   0.80310,   0.93750,  -0.82490,  -0.82429,  -0.36957,   0.88143,  -0.87026
  -0.30332,  -0.27729,  -0.81827,  -0.34408,   0.13136,   0.87711,  -0.73075,  -0.87642,   0.73574,  -0.31221
  -0.93750,   0.82394,  -0.58521,   0.93750,  -0.88739,   0.12233,   0.88752,   0.64024,   0.46127,  -0.50380
   0.23154,   0.15237,  -0.91398,  -0.64523,  -0.65436,  -0.01887,   0.93750,   0.83214,   0.62892,  -0.10573
  -0.59169,  -0.48603,  -0.56462,  -0.58947,   0.39704,   0.49577,   0.93750,   0.80104,   0.07133,   0.79781
  -0.26701,   0.23721,   0.15426,   0.11045,   0.88356,  -0.16113,  -0.06485,  -0.53970,   0.62492,   0.38813
   0.29869,   0.06132,  -0.17020,  -0.49238,   0.93750,  -0.20544,  -0.59869,   0.87756,   0.06908,  -0.29226
   0.82173,  -0.03244,  -0.08695,  -0.14812,   0.93750,  -0.80161,  -0.71653,  -0.60715,   0.56921,  -0.34287
  -0.09076,  -0.58351,   0.52445,   0.73089,  -0.73807,   0.35159,  -0.19567,   0.82118,  -0.21181,   0.74862
   0.93750,  -0.66273,  -0.93750,  -0.87717,   0.24709,  -0.93750,  -0.41690,  -0.48679,  -0.82204,  -0.56398
   0.05070,   0.92832,  -0.93750,  -0.61136,  -0.77902,  -0.43236,  -0.17772,  -0.02143,  -0.44217,   0.93750
  -0.45420,   0.49340,  -0.93750,  -0.86632,   0.63218,  -0.20568,  -0.27461,   0.86818,   0.61887,   0.76935
  -0.14337,  -0.14445,  -0.10238,   0.92453,  -0.43693,   0.17770,   0.29763,  -0.25750,   0.81879,   0.81020
  -0.11991,   0.82346,  -0.57777,   0.82439,  -0.18516,   0.30186,  -0.78674,   0.14157,   0.43030,  -0.29288
   0.35158,  -0.75493,  -0.51363,   0.61575,   0.93750,  -0.53187,   0.59613,   0.02346,   0.60095,  -0.73183
   0.93002,  -0.09762,   0.05286,  -0.32946,   0.93750,   0.87951,  -0.93750,   0.49462,   0.25534,   0.93750
  -0.68435,   0.08699,  -0.79450,   0.89373,  -0.15068,  -0.87446,   0.93750,  -0.80421,  -0.83750,  -0.81473
  -0.70705,  -0.50538,   0.93750,  -0.60910,   0.55595,  -0.37848,  -0.11868,   0.07404,  -0.24912,   0.36755
  -0.75998,  -0.56828,  -0.80978,  -0.90347,   0.20220,   0.40004,  -0.28936,  -0.12579,   0.58813,   0.81270
  -0.62063,   0.20083,   0.56739,  -0.23016,  -0.45603,   0.09437,   0.75519,  -0.30102,  -0.38576,   0.83257
  -0.93750,   0.87418,  -0.60958,   0.34555,  -0.81838,   0.93750,  -0.62705,  -0.69628,   0.86993,  -0.21043
  -0.34647,   0.00298,  -0.81774,  -0.45946,   0.93750,  -0.05898,  -0.54505,  -0.22812,   0.16385,  -0.02382
  -0.93750,  -0.67453,   0.01980,   0.10881,  -0.87904,   0.58202,  -0.47065,   0.80960,  -0.61653,  -0.93750
   0.72961,  -0.73111,  -0.49714,   0.61791,  -0.51281,   0.93750,  -0.69172,  -0.18851,  -0.79655,   0.15747
  -0.58074,   0.87668,   0.44749,  -0.85869,   0.32368,   0.05139,   0.69471,  -0.81787,  -0.49089,   0.93750
   0.76748,   0.30026,  -0.93750,   0.37591,  -0.44527,  -0.69087,   0.85777,  -0.64197,   0.93750,   0.29897
  -0.87390,   0.14565,   0.68114,   0.55615,  -0.42206,   0.87989,  -0.06917,  -0.86505,   0.17912,   0.11508
  -0.40877,   0.39773,   0.61482,   0.08778,  -0.88524,  -0.74579,  -0.24720,   0.93750,   0.06797,  -0.73614
   0.76449,   0.93750,  -0.43121,  -0.42532,  -0.51723,   0.26240,  -0.58297,  -0.28796,  -0.51240,   0.18026
   0.86866,   0.59668,  -0.52404,  -0.24770,   0.68484,  -0.15381,  -0.29485,   0.51851,   0.17572,   0.68137
  -0.37587,   0.33771,  -0.67556,  -0.62553,   0.88300,   0.17604,   0.18258,  -0.93750,   0.48637,  -0.49072
   0.38006,  -0.51415,  -0.43642,   0.00213,   0.08097,   0.11126,   0.80228,  -0.61874,  -0.37516,   0.93750
  -0.59252,   0.53462,  -0.63447,  -0.42293,  -0.55983,  -0.19619,  -0.46576,   0.93750,  -0.50743,   0.93750
   0.93750,   0.84406,   0.93750,   0.93750,  -0.93750,   0.93750,   0.64417,  -0.71463,   0.32888,  -0.79971
  -0.92564,   0.93750,   0.77160,  -0.50726,  -0.55286,   0.62665,   0.28769,  -0.73123,  -0.38207,  -0.86849
  -0.48988,   0.40047,  -0.21284,  -0.49600,   0.67658,   0.79070,  -0.25414,   0.47236,  -0.00071,  -0.37436
  -0.68737,   0.24050,  -0.77403,  -0.47737,   0.85371,  -0.39995,  -0.84179,  -0.07431,  -0.31120,  -0.07679
   0.14168,   0.37948,   0.00803,   0.79812,  -0.30229,   0.16680,  -0.70244,   0.42863,  -0.35260,   0.19609
  -0.80575,   0.93750,  -0.61757,  -0.60663,  -0.93750,  -0.93750,  -0.93750,  -0.88508,  -0.93750,  -0.45796
   0.39537,   0.42773,   0.73519,  -0.41370,  -0.59315,   0.80481,  -0.34503,   0.77354,   0.22637,  -0.60407
  -0.80469,   0.93588,   0.79839,   0.76320,  -0.47317,   0.09502,   0.87211,  -0.64258,   0.21974,   0.70090
   0.85388,   0.17850,   0.79698,  -0.03252,  -0.59864,   0.17623,   0.51036,  -0.43846,  -0.37468,   0.13510
   0.58978,   0.90456,  -0.93750,  -0.93750,   0.10996,   0.93750,  -0.93750,   0.27293,   0.59649,  -0.93750
   0.40822,  -0.79687,   0.81134,  -0.87664,   0.93750,  -0.93750,  -0.47786,   0.34539,  -0.13887,   0.93750
   0.93253,  -0.25307,  -0.31515,  -0.38478,  -0.29899,  -0.13568,  -0.93750,  -0.02869,  -0.64380,  -0.73619
   0.38524,   0.74481,   0.80353,  -0.21337,   0.67236,  -0.73843,  -0.87432,  -0.34240,  -0.80715,   0.06705
  -0.73831,  -0.93750,   0.67765,  -0.63329,  -0.74510,   0.36127,  -0.81896,  -0.62168,  -0.86151,   0.39126
   0.70913,  -0.01331,   0.88897,  -0.16560,  -0.01757,  -0.35098,  -0.25764,   0.50194,  -0.46305,   0.76781
   0.70031,  -0.86880,   0.93356,   0.93750,   0.93750,  -0.81396,  -0.73802,   0.93750,   0.86423,   0.87377
   0.22419,   0.33565,   0.87236,  -0.50328,   0.54546,   0.14247,  -0.17487,  -0.05599,   0.47177,  -0.19310
   0.14198,   0.08916,  -0.51181,  -0.75398,  -0.44872,  -0.80545,   0.93750,   0.59935,  -0.46829,  -0.52940
   0.83134,   0.45975,  -0.45798,  -0.27611,  -0.36568,   0.27079,   0.70939,  -0.41329,   0.50186,   0.82089
   0.81315,   0.74617,  -0.69682,  -0.46171,  -0.28690,   0.41690,   0.63143,   0.52629,  -0.52350,   0.22580
   0.93750,  -0.51556,   0.77234,   0.39919,   0.87775,   0.58317,  -0.68225,  -0.50040,   0.33050,  -0.52069
   0.44320,  -0.93750,  -0.72892,   0.93750,   0.29107,   0.93750,   0.62858,  -0.21481,  -0.86834,  -0.30831
  -0.45199,   0.75364,   0.17141,  -0.45012,  -0.61155,   0.59139,   0.48147,   0.66918,  -0.04215,  -0.09625
   0.60680,   0.44499,  -0.80489,  -0.02720,  -0.52565,   0.30792,   0.81208,   0.05107,  -0.19254,   0.37483
   0.71831,  -0.01314,  -0.26144,  -0.56755,  -0.15390,  -0.52566,  -0.20076,  -0.11129,   0.91585,   0.62678
   0.42203,  -0.86386,   0.12353,   0.01653,  -0.86497,   0.74066,   0.13240,   0.59533,   0.66637,  -0.05829
  -0.75560,  -0.52223,  -0.72780,   0.64913,   0.05927,   0.84737,   0.01489,   0.15004,  -0.33116,   0.21724
  -0.21103,   0.16358,   0.93750,  -0.40518,  -0.71130,   0.26639,  -0.33298,  -0.34399,   0.32037,   0.04340
  -0.13639,  -0.93750,   0.16452,   0.80616,   0.87526,  -0.14355,  -0.38090,  -0.64828,   0.10050,   0.30475
  -0.48726,   0.27412,   0.29160,  -0.87509,  -0.57604,   0.00119,   0.93750,  -0.58574,   0.25621,  -0.68162
   0.93750,  -0.37496,  -0.26564,  -0.34249,   0.82194,  -0.46380,   0.79483,   0.93750,  -0.93750,  -0.23233
   0.64778,   0.92950,   0.86659,  -0.42200,  -0.57362,   0.46526,   0.81023,   0.05035,  -0.11794,   0.49858
   0.11490,   0.92768,  -0.58550,   0.93750,   0.14072,  -0.64280,   0.76413,  -0.35655,  -0.43727,  -0.11546
   0.18011,   0.20476,  -0.93750,  -0.57225,  -0.37521,  -0.26868,  -0.03106,   0.36426,  -0.03742,   0.68180
  -0.28450,   0.12768,   0.83900,   0.75416,  -0.59448,   0.81177,  -0.89127,   0.03804,  -0.01257,  -0.55344
   0.93750,  -0.90850,  -0.93750,   0.37018,   0.88010,  -0.71991,  -0.69747,   0.87552,   0.50803,   0.89120
  -0.12065,   0.75857,  -0.84109,   0.01365,   0.25430,   0.22613,   0.57762,   0.37228,   0.35375,  -0.17591
   0.44906,   0.87571,  -0.06279,  -0.58332,   0.93750,  -0.10578,  -0.63040,   0.93750,   0.48533,   0.56865
  -0.36816,   0.79363,  -0.92491,   0.45697,   0.80747,   0.87052,   0.03140,   0.19733,   0.11507,  -0.75256
   0.77114,  -0.31106,   0.93750,  -0.20810,   0.38024,   0.40634,  -0.48606,  -0.89142,   0.42708,  -0.87784
   0.69222,   0.76072,   0.76679,  -0.64564,  -0.24626,  -0.22562,  -0.21615,  -0.43857,   0.37583,   0.93750
  -0.24849,  -0.51107,  -0.60914,  -0.82888,   0.61810,   0.85434,   0.47263,   0.52097,   0.19713,   0.71698
   0.93750,  -0.03048,   0.31498,  -0.93750,  -0.93750,   0.44516,  -0.87105,   0.11368,   0.52957,  -0.93750
   0.41119,   0.13318,   0.56846,  -0.27811,   0.67625,   0.75344,   0.50485,  -0.10165,   0.72256,  -0.11272
   0.92788,   0.93750,   0.33874,  -0.51752,   0.09160,  -0.75127,  -0.18778,   0.00241,  -0.93750,  -0.57021
  -0.26548,   0.10187,   0.93750,  -0.82148,   0.69175,   0.36036,   0.14782,  -0.82219,  -0.26039,   0.36702
   0.25985,   0.68423,   0.24408,  -0.87676,  -0.29953,   0.75269,  -0.17957,  -0.37956,   0.43519,  -0.37968
  -0.66036,   0.93750,   0.33897,  -0.68349,   0.06974,  -0.73686,   0.53419,  -0.80681,   0.28864,  -0.40291
   0.81856,   0.01976,  -0.86521,   0.68869,   0.65650,  -0.37179,  -0.15357,  -0.74501,   0.07742,  -0.63491
   0.92675,   0.11849,  -0.75532,   0.09111,  -0.69088,   0.00916,   0.73677,   0.86976,  -0.17399,   0.20502
   0.60938,  -0.01727,  -0.11523,   0.11033,  -0.18398,   0.71290,  -0.64589,   0.80105,  -0.31460,  -0.25983
   0.79986,  -0.55215,  -0.86911,  -0.41335,   0.06376,  -0.93750,   0.93750,  -0.80755,   0.70359,   0.33487
   0.93284,  -0.69258,  -0.58497,   0.26604,   0.00120,   0.07791,  -0.71110,  -0.26430,  -0.84227,   0.02697
   0.72990,   0.27172,   0.85589,  -0.51248,  -0.33339,   0.45877,   0.52809,   0.43635,   0.47802,  -0.30748
   0.34765,   0.93750,   0.05835,  -0.93750,   0.40078,   0.17852,   0.06211,   0.80306,  -0.24429,  -0.93750
  -0.09002,  -0.21292,   0.00609,   0.93750,  -0.08860,  -0.82167,  -0.41562,   0.48602,  -0.63952,  -0.05032
   0.86658,  -0.26927,  -0.65555,  -0.71552,   0.44122,   0.28963,  -0.05846,  -0.17115,  -0.51653,  -0.00747
  -0.76014,  -0.11726,   0.30696,   0.35072,   0.82050,   0.36957,  -0.46367,  -0.04979,   0.69560,  -0.01591
   0.25058,   0.23510,   0.19437,   0.08697,   0.30664,   0.36859,   0.52869,  -0.34025,   0.55304,  -0.02292
   0.00183,  -0.89899,  -0.59152,  -0.62242,  -0.52911,   0.93750,   0.93750,  -0.93750,  -0.16923,  -0.47355
  -0.28451,   0.93750,  -0.93750,  -0.05211,  -0.63613,  -0.67976,  -0.29577,   0.27888,  -0.37765,  -0.87129
  -0.49727,   0.93750,  -0.66366,  -0.48968,  -0.43361,  -0.30402,   0.24556,   0.38242,   0.19052,  -0.45152
   0.26650,   0.63487,  -0.81299,   0.56346,   0.53274,  -0.35904,  -0.29251,  -0.01740,   0.87225,   0.31716
  -0.16198,  -0.75140,  -0.49873,   0.02825,   0.76323,  -0.34623,   0.58960,   0.23810,  -0.78453,   0.93750
  -0.22902,  -0.26941,   0.26633,   0.46560,  -0.76717,   0.92940,  -0.49463,  -0.75818,  -0.30025,  -0.27663
  -0.16947,   0.47264,   0.28358,   0.11327,   0.93750,  -0.28338,   0.35060,  -0.76955,  -0.48186,   0.26993
  -0.66592,  -0.79374,   0.16958,  -0.56951,   0.74895,  -0.03142,   0.93750,   0.02722,   0.91687,  -0.19146
  -0.71674,  -0.71903,  -0.75272,  -0.00449,   0.93750,   0.19999,  -0.43220,   0.46727,  -0.03836,   0.82626
  -0.27897,   0.30498,   0.14027,  -0.16088,   0.51234,   0.05787,  -0.27538,  -0.18110,  -0.36834,  -0.74715
   0.48699,  -0.06111,  -0.67830,   0.93750,  -0.93750,   0.34135,   0.93750,  -0.93750,   0.66020,   0.47436
   0.08985,   0.53246,  -0.04499,   0.75421,   0.17258,  -0.82289,  -0.65295,  -0.87867,  -0.21513,  -0.29548
  -0.56423,   0.80045,  -0.61428,   0.56468,   0.87041,  -0.39238,  -0.02467,  -0.46272,  -0.23323,  -0.37365
   0.18738,  -0.88433,   0.59339,   0.80339,  -0.14576,  -0.11339,  -0.12168,  -0.74362,   0.36402,   0.87567
  -0.93750,  -0.78718,   0.15070,   0.55634,   0.01968,   0.77156,   0.93750,   0.93750,  -0.72632,  -0.79436
   0.18554,   0.02688,   0.67149,  -0.28596,   0.06016,  -0.77676,  -0.33679,   0.75353,   0.07724,   0.04808
   0.86842,   0.51580,  -0.81280,   0.74396,   0.86919,   0.12895,  -0.76039,  -0.62203,  -0.79796,   0.83294
  -0.75424,  -0.93750,   0.69782,   0.93750,  -0.81536,  -0.70921,  -0.93750,   0.62910,   0.71089,  -0.31371
   0.55515,   0.25498,  -0.86172,  -0.83034,  -0.80771,   0.93750,  -0.45725,  -0.92158,   0.03342,   0.11892
  -0.63747,   0.01173,   0.11007,  -0.76372,   0.91101,  -0.06068,   0.03581,   0.79905,   0.11679,  -0.31520
  -0.50128,   0.82558,   0.11960,   0.49133,  -0.56757,   0.63906,   0.66208,  -0.30720,   0.22112,   0.17465
  -0.34272,  -0.19157,  -0.89482,   0.13524,  -0.72166,   0.78512,  -0.31689,   0.93750,   0.57673,   0.12716
   0.02660,   0.22792,   0.15704,  -0.52324,  -0.34163,   0.04275,   0.04500,   0.55494,   0.91725,   0.81214
  -0.12538,   0.83042,   0.87621,  -0.93750,   0.43170,  -0.74400,  -0.93750,  -0.25579,  -0.87097,   0.93750
  -0.93750,  -0.93750,  -0.93750,   0.87594,   0.93750,  -0.10702,  -0.61777,  -0.93750,   0.29898,   0.91269
  -0.93750,  -0.87697,  -0.61414,  -0.38264,   0.93750,   0.58691,  -0.88406,  -0.58262,  -0.81812,  -0.93750
   0.75348,   0.83644,   0.87782,  -0.77355,   0.86082,   0.32853,   0.62553,  -0.02086,  -0.74974,  -0.75226
   0.93750,   0.23932,   0.74250,  -0.93750,   0.93750,   0.47303,   0.93750,   0.24809,   0.60475,   0.93750
  -0.74291,  -0.93750,   0.41883,   0.22475,  -0.07691,   0.06152,   0.26228,   0.77987,   0.80926,  -0.26690
  -0.84023,   0.39294,  -0.65744,  -0.71926,   0.65131,  -0.80157,  -0.34741,   0.93750,  -0.17178,  -0.71175
  -0.82900,   0.93750,   0.68521,   0.49931,  -0.13807,   0.82242,  -0.93750,   0.69121,  -0.47850,  -0.56152
  -0.23160,   0.00158,   0.93750,  -0.73700,  -0.81448,   0.32758,  -0.93750,  -0.86495,   0.93750,   0.93750
  -0.33306,  -0.42047,   0.10782,  -0.12700,  -0.50675,  -0.61103,   0.88226,   0.19549,  -0.04532,  -0.55792
  -0.13115,   0.93750,  -0.49239,  -0.27323,   0.93750,  -0.93750,  -0.80198,  -0.81291,  -0.65191,   0.93750
  -0.23210,  -0.01970,  -0.44610,  -0.38771,  -0.53094,   0.68274,   0.51589,   0.73733,  -0.23508,   0.32882
  -0.89838,   0.93750,  -0.84418,  -0.20308,  -0.19127,  -0.45826,   0.06293,  -0.42219,  -0.04829,  -0.80814
  -0.06364,  -0.47453,   0.90226,  -0.31539,  -0.65336,  -0.82730,  -0.50290,   0.57217,  -0.68370,  -0.36172
  -0.93750,  -0.74623,  -0.26061,   0.39078,  -0.91187,  -0.46255,  -0.08303,   0.93750,   0.83694,  -0.23503
  -0.87559,   0.74392,   0.13706,  -0.87740,   0.08305,   0.56934,   0.93750,  -0.60967,   0.87848,  -0.90504
  -0.93750,  -0.35550,  -0.37625,   0.93750,  -0.74402,  -0.88148,  -0.48918,   0.19619,   0.22459,  -0.54430
  -0.02937,  -0.93750,   0.93750,  -0.93057,  -0.93750,  -0.53788,   0.93750,  -0.80936,  -0.83893,   0.64039
  -0.59704,  -0.52358,   0.86364,  -0.64107,  -0.74145,   0.33256,  -0.47253,   0.88416,  -0.14410,   0.68429
  -0.80518,   0.35157,   0.93750,   0.67842,  -0.04218,  -0.08133,   0.93750,   0.75914,  -0.68711,   0.93750
  -0.47888,  -0.04496,   0.87531,  -0.38690,  -0.03087,   0.93750,  -0.42755,   0.37711,   0.16745,   0.93750
   0.41149,  -0.06625,   0.19228,   0.11938,   0.14093,   0.01584,   0.74343,  -0.48201,   0.92924,  -0.26007
   0.08520,  -0.10054,  -0.19551,  -0.81282,  -0.65186,   0.38109,   0.93750,  -0.29862,   0.03202,  -0.45375
  -0.59425,  -0.69795,  -0.93750,   0.03394,   0.93750,   0.63210,  -0.73985,  -0.37913,   0.38032,  -0.38873
   0.33054,  -0.81742,   0.09603,   0.81824,  -0.32424,   0.30189,   0.86965,   0.28087,  -0.46686,   0.43720
  -0.93750,  -0.25770,   0.10012,  -0.76149,   0.93750,  -0.93750,   0.09824,  -0.93750,  -0.05820,   0.79610
   0.76413,  -0.30317,  -0.72994,  -0.62245,  -0.61450,   0.87323,  -0.74981,   0.28404,  -0.00971,   0.44695
   0.03300,  -0.19963,  -0.87535,  -0.21886,   0.58131,   0.68188,   0.32586,   0.35465,  -0.35726,  -0.26287
  -0.40301,  -0.93750,  -0.93750,  -0.93750,  -0.93750,   0.93750,   0.74323,  -0.93750,   0.24702,  -0.93750
  -0.22705,  -0.17848,  -0.20789,   0.73823,   0.01482,   0.87084,  -0.35383,   0.34843,   0.30261,   0.65393
   0.86977,  -0.15138,  -0.93750,  -0.66457,   0.45199,   0.31640,  -0.87559,   0.87979,   0.80767,   0.93750
  -0.74594,   0.01878,  -0.65544,  -0.66656,  -0.19522,   0.87625,  -0.50122,   0.93750,   0.25729,   0.86477
   0.29241,  -0.59760,   0.93750,  -0.66589,  -0.70200,  -0.57461,  -0.46844,   0.80000,  -0.02517,   0.41587
   0.16861,  -0.87187,  -0.87932,  -0.82731,   0.93750,   0.03368,  -0.25876,  -0.59293,  -0.36875,   0.92180
  -0.59073,   0.93750,  -0.34990,   0.50140,  -0.26691,  -0.39245,  -0.27717,  -0.75483,  -0.32029,  -0.85819
   0.93750,  -0.01221,  -0.69541,   0.41528,  -0.93750,   0.13875,  -0.81235,   0.02951,  -0.12055,  -0.07480
  -0.93456,   0.68803,   0.12110,  -0.20760,   0.24798,   0.48810,  -0.61931,  -0.69968,   0.84421,   0.93750
  -0.46083,   0.67458,  -0.51306,   0.50339,  -0.27742,  -0.46129,  -0.07444,   0.35928,   0.44688,   0.62299
  -0.46413,   0.08871,  -0.66919,   0.74002,   0.02080,  -0.73057,   0.93750,   0.93750,   0.48841,  -0.87710
  -0.35981,  -0.49068,  -0.26160,   0.27484,  -0.33690,   0.93750,   0.93750,   0.88213,  -0.79897,  -0.15892
  -0.34278,   0.02131,  -0.93750,   0.87228,  -0.07560,  -0.74870,  -0.93750,   0.24613,   0.93750,  -0.05858
   0.04913,  -0.85482,   0.93750,  -0.21261,   0.93750,  -0.87086,   0.93750,  -0.87760,  -0.43011,   0.93750
   0.02414,  -0.20754,  -0.34759,  -0.68322,   0.16969,  -0.12657,   0.06578,   0.93172,   0.50514,   0.45802
  -0.08915,   0.88122,  -0.36089,  -0.49964,   0.87210,   0.42126,  -0.32175,  -0.68018,  -0.74344,  -0.44652
   0.93315,   0.44094,  -0.46963,  -0.73651,  -0.53026,  -0.17027,   0.93750,  -0.06733,  -0.23796,   0.37194
   0.63886,  -0.26007,  -0.40343,   0.88679,   0.43128,   0.59563,  -0.25444,  -0.27593,  -0.70303,  -0.50051
   0.93750,  -0.29522,  -0.21421,   0.93750,  -0.86714,  -0.93750,   0.77478,  -0.93750,  -0.33661,  -0.22624
   0.15633,  -0.74247,  -0.61242,  -0.51860,  -0.18146,   0.30951,  -0.28683,  -0.69666,  -0.34864,   0.60810
   0.00427,  -0.26997,   0.63095,   0.54473,   0.12543,  -0.51853,   0.72474,  -0.12924,   0.11042,  -0.21582
  -0.87372,   0.38874,  -0.81999,   0.38801,   0.14498,  -0.87285,  -0.29387,   0.19272,   0.36701,   0.74539
   0.31881,  -0.93750,  -0.93750,   0.93750,   0.31197,   0.93750,  -0.93750,  -0.37655,  -0.68393,   0.55812
   0.56357,  -0.78067,   0.77356,  -0.69399,  -0.02603,  -0.62454,   0.75464,   0.93409,   0.79305,  -0.55811
   0.64640,  -0.72628,   0.87081,  -0.69949,   0.19888,  -0.25067,   0.82341,  -0.23855,   0.14545,  -0.53490
   0.14067,  -0.71404,  -0.76232,   0.93750,  -0.93750,  -0.02325,   0.08936,  -0.54125,  -0.38947,   0.87076
  -0.27093,  -0.87365,   0.58847,   0.93750,  -0.93750,  -0.40645,  -0.44328,   0.93750,   0.06381,  -0.93750
  -0.29599,  -0.62787,  -0.83763,  -0.86681,   0.48865,  -0.89388,   0.56577,   0.87591,   0.18097,   0.67271
  -0.45741,   0.82848,  -0.25614,  -0.45966,  -0.20839,  -0.36673,   0.45449,  -0.57554,   0.08019,   0.58464
   0.53245,   0.74475,   0.93750,   0.36287,   0.86039,  -0.04374,   0.86026,   0.93750,   0.69659,   0.93750
  -0.02392,   0.14372,   0.93750,  -0.32234,   0.06616,  -0.85142,  -0.24254,  -0.93502,   0.15796,   0.01725
   0.11594,   0.34146,   0.41569,   0.55333,   0.42544,  -0.01657,   0.14642,   0.10468,  -0.66779,   0.27561
   0.59703,  -0.24647,   0.33742,  -0.87310,  -0.74055,   0.93750,  -0.69893,  -0.88218,   0.74968,   0.17610
   0.32980,  -0.28690,  -0.86915,  -0.71711,   0.27881,   0.85797,   0.82468,  -0.56921,  -0.80128,  -0.43956
   0.36578,  -0.37842,   0.03631,   0.85644,  -0.08681,  -0.73320,  -0.61963,  -0.11907,   0.53906,   0.10865
  -0.14237,   0.84496,  -0.69793,  -0.93750,   0.46208,   0.17754,   0.93750,  -0.87305,  -0.36977,   0.60563
   0.16661,  -0.77249,   0.00624,  -0.58046,   0.81238,   0.69161,  -0.07569,  -0.65706,   0.78835,   0.74139
   0.57120,   0.21626,  -0.67044,   0.48480,  -0.44847,  -0.33580,  -0.22646,   0.56322,   0.23169,   0.79555
  -0.18771,   0.93750,   0.72799,  -0.26066,   0.66106,  -0.08943,  -0.21362,   0.77363,  -0.60808,  -0.67169
   0.51735,  -0.93750,  -0.93750,  -0.87950,   0.93750,   0.86653,  -0.93750,  -0.33517,  -0.17938,   0.80692
   0.93750,   0.77975,  -0.61024,   0.69628,  -0.75033,   0.31054,  -0.81590,  -0.22376,  -0.70266,  -0.19192
   0.93750,   0.88202,  -0.03922,   0.86412,  -0.93750,  -0.45742,   0.02132,   0.61861,  -0.93750,   0.81574
   0.80398,  -0.10721,   0.40110,  -0.12786,   0.70883,   0.37313,  -0.35879,   0.21172,   0.45115,  -0.40278
  -0.45334,   0.71105,   0.56445,   0.87512,   0.51867,   0.30217,  -0.68676,  -0.25765,   0.86747,  -0.02517
   0.27489,  -0.93750,   0.93750,  -0.70328,   0.93750,  -0.02835,   0.39802,   0.62443,   0.24544,   0.60327
  -0.46161,  -0.84742,   0.15717,   0.45591,   0.54932,   0.47601,  -0.31967,  -0.12983,  -0.16132,   0.87920
  -0.91863,   0.93750,  -0.93750,   0.49540,   0.93750,  -0.93750,  -0.92403,   0.48179,  -0.30275,   0.87242
   0.17956,   0.40917,  -0.05594,   0.39092,  -0.01559,   0.58978,  -0.93750,   0.13903,   0.08147,   0.62319
   0.74348,   0.11707,   0.71616,   0.06466,   0.87369,   0.46214,  -0.81434,   0.74225,  -0.19016,  -0.74985
  -0.86556,   0.48300,  -0.82058,  -0.04768,   0.93750,   0.77800,  -0.93750,  -0.93750,  -0.88326,   0.82609
  -0.93750,   0.07317,  -0.06536,  -0.58709,  -0.93750,  -0.10558,  -0.93750,   0.22214,  -0.93750,  -0.57100
  -0.69436,   0.21731,   0.92795,  -0.23750,  -0.65453,   0.18432,  -0.15662,  -0.01984,   0.12115,  -0.18416
  -0.14490,  -0.93750,   0.37861,   0.83148,   0.38194,   0.59712,   0.13463,  -0.08522,  -0.14216,   0.46273
   0.24480,  -0.01645,  -0.53078,   0.88432,  -0.11911,  -0.79802,  -0.73778,  -0.42942,  -0.04861,  -0.42084
  -0.87231,  -0.69129,  -0.93750,  -0.61899,  -0.57165,   0.93750,   0.21854,   0.08539,   0.31589,   0.90798
   0.34528,  -0.46107,   0.29572,   0.03630,  -0.36101,  -0.43674,   0.22631,   0.65837,   0.05598,   0.88033
   0.70751,  -0.14226,  -0.93750,  -0.38194,  -0.93750,   0.58931,   0.45004,   0.67853,  -0.93750,   0.43694
  -0.93750,  -0.82247,   0.06984,  -0.11060,   0.76779,  -0.73946,  -0.80905,   0.67326,   0.11458,   0.79902
  -0.56180,  -0.14516,   0.05786,  -0.76374,   0.60071,  -0.82944,  -0.51071,  -0.78436,   0.17631,   0.93750
   0.00296,   0.84090,  -0.54881,   0.29617,   0.93750,  -0.26676,  -0.34132,  -0.47659,  -0.18989,   0.71734
  -0.73975,   0.93750,   0.33281,  -0.18359,   0.59145,  -0.93750,  -0.83865,  -0.87360,  -0.93750,  -0.66160
   0.28673,   0.65567,   0.90014,   0.54824,  -0.39246,  -0.48861,  -0.87771,  -0.01581,  -0.35617,  -0.15007
  -0.12708,  -0.41249,  -0.12477,   0.67999,  -0.69526,  -0.14743,  -0.37049,   0.82197,   0.05291,  -0.74282
  -0.43643,  -0.16060,  -0.75277,  -0.43045,  -0.56991,  -0.60791,  -0.29640,  -0.34125,   0.01818,   0.93750
  -0.69614,   0.41133,  -0.75741,  -0.69691,  -0.79919,   0.87401,   0.27780,  -0.03538,   0.87412,  -0.29999
  -0.93750,  -0.88318,  -0.44776,   0.07483,   0.93750,   0.93750,   0.65580,  -0.69560,  -0.80889,  -0.17754
   0.89351,  -0.00092,  -0.13986,   0.75793,   0.89469,  -0.93750,  -0.93750,   0.23540,   0.93750,   0.05974
   0.93727,   0.93750,   0.80228,  -0.21487,   0.05398,  -0.16036,  -0.06523,   0.19249,  -0.17214,  -0.93750
  -0.51619,   0.93750,   0.35863,   0.29784,   0.78191,   0.56250,   0.10698,  -0.05252,  -0.36797,  -0.17237
