   0.13477,  -0.61263,   0.47653,  -0.36665,  -0.80013,  -0.51164,   0.00070,  -0.21091,  -0.51794,  -0.09575,  -0.46005,  -0.52539,  -0.22555,   0.87843,   0.72029,  -0.69655,  -0.34287,   0.70288,  -0.16910,  -0.30932,   0.71119,   0.72545,  -0.45817,   0.70483,  -0.66630,  -0.49606,  -0.44790,   0.46126,  -0.35397,  -0.11075,   0.32171,   0.36466,   0.50957,   0.25456,  -0.01510,  -0.25320,   0.09856,  -0.07987,  -0.39377,  -0.58252,   0.79961,   0.66734,  -0.16199,  -0.41969,  -0.36252,   0.59896,  -0.41073,   0.80723,  -0.28114,  -0.39422,   0.72662,  -0.35192,   0.58903,  -0.54473,   0.33175,  -0.54162,  -0.57798,  -0.34816,  -0.35088,   0.64361,  -0.52304,  -0.29024,  -0.40089,   0.83691,  -0.26927,  -0.35389,  -0.13331,  -0.52681,  -0.43373,  -0.49744,  -0.26567,  -0.66998,   0.11735,  -0.51217,   0.49700,  -0.17335,   0.67996,   0.70425,  -0.05257,  -0.37598,   0.16020,  -0.00827,   0.33697,  -0.58303,   0.52635,  -0.06041,   0.84721,   0.25437,   0.49580,   0.34401,  -0.23054,   0.84240,  -0.13618,   0.74476,  -0.47199,   0.25656,  -0.20031,   0.14672,   0.65677,  -0.68489,   0.27377,   0.08632,   0.07341,  -0.55038,  -0.31264,   0.52957,  -0.54540,   0.01407,  -0.59963,  -0.23163,  -0.38680,  -0.47395,  -0.43206,  -0.68451,  -0.37602,  -0.37946,   0.78768,   0.01871,  -0.72085,   0.60931,   0.79042,  -0.23919,  -0.60300,   0.33575,  -0.14317,   0.77382,   0.87271,   0.65579
   0.16345,  -0.68780,   0.09572,  -0.08909,   0.49333,  -0.37559,  -0.72141,  -0.40950,  -0.37555,  -0.23635,  -0.52006,  -0.55406,  -0.58027,   0.74273,  -0.58896,  -0.14332,   0.93750,  -0.50663,  -0.39537,  -0.31866,   0.91668,   0.84285,   0.40259,  -0.67346,  -0.73603,   0.43444,  -0.54369,   0.38463,  -0.81961,   0.20969,   0.40561,   0.68805,   0.68616,   0.63224,  -0.22308,   0.15971,   0.85320,  -0.40554,   0.93750,  -0.50625,   0.74091,   0.68214,  -0.42257,   0.46896,   0.85075,   0.71143,   0.93458,  -0.28193,  -0.48164,   0.33970,   0.70712,  -0.56144,  -0.30885,  -0.78970,  -0.26904,   0.40691,   0.83304,  -0.26266,  -0.02941,   0.16180,   0.06466,  -0.23713,  -0.21846,  -0.18894,  -0.46514,  -0.27103,  -0.45314,  -0.47287,  -0.80518,   0.90375,  -0.58595,  -0.20645,  -0.73637,  -0.40104,   0.85568,   0.16127,  -0.47635,  -0.25790,   0.79277,  -0.47332,  -0.60713,  -0.15507,   0.57126,  -0.45902,  -0.78754,   0.09234,   0.09388,  -0.15882,   0.41514,  -0.00161,   0.93750,   0.74763,  -0.36693,   0.74322,  -0.47637,   0.40033,   0.73832,   0.86955,  -0.45644,  -0.14592,   0.07655,   0.42635,   0.18841,   0.91025,   0.53639,   0.56482,  -0.38229,  -0.62591,  -0.21040,  -0.17489,   0.93750,  -0.65717,  -0.45003,  -0.70316,  -0.08515,  -0.54884,   0.48831,   0.04146,   0.38395,  -0.69249,  -0.29666,  -0.55991,   0.18902,  -0.08761,   0.33973,   0.63305,   0.62872,   0.15574
   0.73213,  -0.36097,  -0.24440,   0.27876,   0.83268,   0.55947,  -0.44062,   0.48789,  -0.74190,  -0.75214,   0.02679,  -0.15404,  -0.63693,  -0.36857,  -0.49334,  -0.63959,   0.91605,  -0.22651,   0.76132,  -0.22815,   0.24461,   0.87600,   0.49927,   0.47488,  -0.50221,   0.82061,   0.88001,   0.44956,  -0.05962,   0.55660,   0.62564,   0.87500,   0.22807,  -0.42692,  -0.51650,   0.24246,   0.71078,   0.43525,   0.24070,   0.28531,  -0.37606,   0.80485,  -0.19790,  -0.48507,   0.70683,   0.38857,   0.58293,  -0.27115,  -0.55603,   0.23399,   0.63982,  -0.45946,   0.76295,   0.78678,  -0.38202,  -0.58063,   0.20551,  -0.37528,  -0.45036,  -0.46364,  -0.10298,   0.14918,  -0.41989,  -0.21311,  -0.56316,   0.29282,  -0.45666,   0.13708,   0.77745,   0.47922,   0.56580,  -0.48996,  -0.46817,  -0.57381,   0.18594,   0.67341,  -0.12503,  -0.35817,   0.38667,   0.39440,   0.47465,  -0.59120,  -0.38071,  -0.29143,  -0.78903,  -0.17265,   0.23457,  -0.39131,   0.72462,  -0.66813,  -0.44937,   0.57737,  -0.34616,  -0.06782,   0.78487,  -0.19478,   0.33503,   0.80667,  -0.03854,  -0.22301,   0.25283,  -0.56701,  -0.59733,  -0.18861,  -0.28662,  -0.12857,  -0.31536,   0.49112,   0.50346,  -0.58635,  -0.64659,   0.38715,  -0.47520,  -0.41772,   0.04923,  -0.39688,  -0.00070,  -0.41813,  -0.08881,   0.53114,  -0.46232,   0.35580,  -0.09128,   0.50809,  -0.31002,   0.52483,   0.10671,  -0.08134
  -0.30515,   0.38949,   0.25312,   0.06676,   0.54648,  -0.65839,   0.85075,   0.28459,  -0.24772,   0.06086,  -0.27213,   0.15403,  -0.41975,   0.00287,   0.49982,  -0.57088,  -0.32788,   0.07523,  -0.34300,  -0.63426,  -0.41391,  -0.64000,  -0.41565,  -0.18626,  -0.18612,  -0.38462,   0.12438,   0.88164,   0.64390,  -0.73195,   0.87274,  -0.17867,  -0.59211,   0.87518,  -0.52363,   0.09586,   0.81846,  -0.66634,  -0.32156,   0.44368,  -0.60301,   0.31472,  -0.33964,  -0.59606,   0.68794,   0.88419,   0.02343,   0.92104,   0.55080,  -0.08987,  -0.70644,  -0.46219,   0.93700,  -0.63775,  -0.39488,  -0.67703,  -0.28607,  -0.13798,  -0.10230,  -0.30967,   0.60198,   0.36225,  -0.17783,   0.25494,  -0.49322,   0.10143,   0.12715,  -0.68841,  -0.08014,  -0.43686,  -0.41663,   0.87021,  -0.00516,  -0.77773,  -0.39130,   0.73397,   0.64853,   0.53692,  -0.47381,  -0.33204,  -0.39021,  -0.60455,   0.70372,  -0.03976,   0.87949,   0.30451,   0.49996,   0.21772,   0.74456,  -0.53359,  -0.24887,  -0.28026,   0.04717,   0.19381,   0.50695,  -0.07077,  -0.40436,  -0.46108,  -0.16089,   0.80128,   0.82728,  -0.61621,  -0.51895,  -0.48675,   0.16106,   0.59736,  -0.43710,   0.70756,   0.64947,  -0.20936,   0.91991,   0.80364,  -0.27186,  -0.06727,  -0.57927,  -0.43577,   0.75017,  -0.45754,  -0.32272,   0.75305,   0.30446,   0.64128,   0.90677,  -0.11855,  -0.53886,  -0.10121,  -0.23143,   0.61700
  -0.51210,  -0.44014,  -0.24633,  -0.28883,  -0.51870,  -0.46283,  -0.38594,   0.00335,   0.46682,  -0.23367,  -0.59250,   0.80701,   0.93750,  -0.44506,  -0.34062,  -0.38729,  -0.57601,  -0.00947,  -0.34327,  -0.23978,  -0.77914,  -0.57801,  -0.29929,  -0.17710,   0.59904,   0.89396,   0.56572,  -0.41898,  -0.14439,   0.48097,  -0.68947,  -0.60753,  -0.44623,   0.81798,  -0.08262,   0.36042,  -0.50567,  -0.69156,   0.66777,  -0.51031,   0.66804,   0.72984,  -0.01239,   0.93750,  -0.20628,   0.29446,   0.43529,  -0.92211,   0.82486,   0.70488,  -0.80240,   0.87517,  -0.91729,  -0.66772,  -0.71666,   0.84651,   0.08002,   0.07076,   0.52558,  -0.62785,  -0.52829,  -0.06621,   0.01846,   0.93750,   0.72280,   0.00721,   0.57752,   0.85420,  -0.42168,   0.50218,  -0.59395,   0.85921,  -0.24397,   0.02533,  -0.76622,  -0.67784,   0.85850,  -0.48582,   0.76531,  -0.69580,  -0.33457,   0.11256,  -0.36409,  -0.48453,  -0.09801,   0.25078,  -0.49918,   0.32091,  -0.55475,   0.83295,   0.68208,   0.18286,   0.69066,  -0.60278,  -0.12399,   0.35219,  -0.08235,   0.00426,  -0.62864,  -0.38037,  -0.52641,  -0.59200,   0.75466,   0.80311,   0.07013,  -0.18400,  -0.11970,   0.79695,   0.73311,   0.83235,   0.80606,  -0.50819,   0.04664,   0.60350,  -0.19242,  -0.76221,  -0.87000,  -0.36570,   0.80586,   0.80733,  -0.51403,   0.71716,   0.16396,  -0.07415,  -0.39311,  -0.78648,  -0.45083,   0.67585
   0.13608,  -0.14318,  -0.35519,  -0.63855,  -0.82600,   0.42976,   0.38748,  -0.41887,   0.82509,  -0.42407,   0.32354,  -0.44645,  -0.43231,   0.85880,  -0.24215,  -0.62285,   0.08487,  -0.47753,   0.79146,  -0.03410,   0.91937,   0.43937,  -0.29367,   0.21155,  -0.22364,  -0.14492,   0.64435,  -0.19513,   0.73697,  -0.28476,   0.72058,   0.07633,   0.62499,  -0.36362,  -0.19981,   0.75670,   0.14159,   0.93750,   0.51890,   0.54232,  -0.10119,   0.53297,  -0.35684,   0.90929,  -0.52567,  -0.34411,   0.43283,  -0.54137,  -0.76795,   0.64230,   0.31056,   0.58368,  -0.48152,   0.58773,   0.23573,   0.70115,  -0.40572,  -0.34134,   0.72149,  -0.39616,  -0.72257,   0.50746,  -0.02654,  -0.14281,  -0.85244,   0.49006,   0.69003,  -0.19855,   0.77159,  -0.40594,   0.47971,  -0.49141,  -0.28977,   0.26253,  -0.61056,   0.47878,  -0.12301,  -0.31388,   0.81132,   0.42756,   0.69830,  -0.27936,   0.82092,   0.35517,   0.88888,   0.50471,  -0.52512,  -0.39674,  -0.63535,   0.93750,  -0.39057,   0.16761,   0.46042,  -0.16092,   0.04686,   0.62348,   0.30897,  -0.00167,  -0.20054,   0.30642,  -0.11551,  -0.42895,   0.56519,  -0.48302,   0.63772,   0.19233,   0.18940,   0.54328,   0.39119,   0.44059,  -0.19063,   0.77738,  -0.33912,  -0.49622,  -0.47874,  -0.55052,  -0.15465,  -0.64656,   0.51916,   0.75724,   0.23318,   0.18546,  -0.17417,   0.57244,  -0.47366,   0.59705,   0.13361,  -0.69112
  -0.17417,  -0.29258,   0.47188,  -0.18698,   0.72178,  -0.41979,   0.67602,  -0.07396,  -0.34207,  -0.18508,  -0.25356,  -0.23411,  -0.34411,  -0.41340,   0.62450,  -0.39378,   0.53814,   0.32625,   0.03215,  -0.01776,  -0.27052,  -0.54520,   0.64817,   0.91290,  -0.13579,  -0.29502,   0.76369,   0.64754,  -0.12406,   0.79763,   0.59395,  -0.62523,   0.10794,  -0.64023,  -0.58561,  -0.28145,   0.45945,   0.24892,  -0.03347,   0.78204,  -0.50481,  -0.25843,  -0.03213,  -0.69922,   0.57197,  -0.11818,  -0.21784,   0.77722,  -0.11171,  -0.60826,   0.02085,  -0.26044,   0.36017,   0.76027,  -0.32311,  -0.13420,   0.34796,  -0.29876,   0.26289,  -0.23448,  -0.34561,   0.57825,  -0.27788,  -0.15337,  -0.48858,   0.54565,   0.20567,   0.63037,   0.66232,  -0.39067,   0.68076,  -0.31174,  -0.24648,  -0.59010,   0.28567,   0.33848,  -0.10490,   0.13384,  -0.34221,  -0.04281,   0.93750,  -0.30718,  -0.65482,  -0.25684,  -0.49857,   0.07281,   0.43648,  -0.49087,  -0.23289,  -0.44728,  -0.17782,  -0.46143,   0.73348,   0.40361,   0.09994,   0.14616,  -0.59425,   0.46285,   0.25547,   0.88031,   0.23207,  -0.69963,  -0.27900,  -0.25562,  -0.34856,   0.74562,  -0.58771,   0.91474,  -0.20435,  -0.40499,  -0.56701,   0.57966,  -0.39996,  -0.76760,  -0.65113,  -0.39997,   0.23813,  -0.26121,   0.82707,   0.02140,  -0.28692,  -0.09172,  -0.00555,   0.73228,  -0.28619,  -0.00366,  -0.58058,   0.02416
  -0.37548,  -0.48271,  -0.48025,  -0.90070,  -0.40140,  -0.48909,   0.69747,   0.55770,   0.63130,  -0.16134,   0.78673,   0.71517,   0.53870,  -0.49274,   0.06683,  -0.13134,   0.14019,   0.93039,   0.39223,   0.08913,  -0.41352,  -0.76549,  -0.17744,   0.62272,  -0.00372,  -0.34911,  -0.26386,  -0.38642,  -0.33034,   0.69662,  -0.52211,  -0.47293,  -0.62794,  -0.54302,  -0.19597,   0.66496,  -0.68759,  -0.40496,  -0.21903,  -0.39363,  -0.07046,  -0.54973,   0.36832,  -0.29863,  -0.29374,  -0.29608,   0.16276,  -0.43992,  -0.82776,  -0.47989,  -0.42280,   0.28301,  -0.31997,   0.10091,  -0.43665,  -0.23082,  -0.44002,  -0.34481,   0.32178,  -0.61032,  -0.71027,   0.81001,  -0.27878,   0.58012,  -0.31300,   0.72609,   0.65533,   0.87133,   0.93750,  -0.32513,  -0.06898,   0.59755,  -0.53845,  -0.31528,  -0.81592,  -0.71892,   0.36300,   0.84281,  -0.40082,  -0.22267,   0.21806,  -0.21061,  -0.72495,  -0.38701,  -0.34748,  -0.28514,  -0.37341,  -0.45937,  -0.53618,  -0.21588,   0.09877,  -0.57586,   0.78886,   0.03875,  -0.09341,  -0.48265,  -0.54783,  -0.42657,   0.73469,  -0.21038,  -0.60782,  -0.34433,   0.26576,  -0.12840,  -0.63881,  -0.85457,   0.39275,   0.35184,   0.28132,   0.79968,  -0.29658,  -0.36866,   0.44457,   0.86097,  -0.49190,  -0.41381,  -0.63108,  -0.67377,   0.64580,   0.61846,   0.66399,   0.68926,  -0.38039,   0.09856,  -0.43842,  -0.32582,  -0.39020,  -0.34021
  -0.60362,  -0.25178,  -0.14654,  -0.36454,  -0.32212,  -0.43995,   0.86876,  -0.55870,   0.70850,  -0.11230,   0.93542,   0.50479,  -0.61867,   0.71537,   0.76647,  -0.46818,   0.50676,   0.91471,  -0.43988,  -0.03335,   0.76436,   0.84593,  -0.46028,   0.93561,  -0.28329,  -0.54741,  -0.24217,  -0.05108,   0.87312,  -0.66114,   0.18018,   0.45778,  -0.19260,  -0.46136,  -0.46400,  -0.33006,  -0.32805,   0.88596,  -0.12045,  -0.64966,   0.06388,  -0.66296,  -0.12364,  -0.08634,   0.30968,  -0.15092,  -0.47105,   0.51893,  -0.49093,  -0.12370,   0.40926,  -0.17355,  -0.23090,   0.67469,  -0.39607,  -0.35962,  -0.15629,  -0.55552,   0.80593,  -0.61762,  -0.63405,   0.17102,   0.61282,   0.89612,  -0.39639,   0.79937,   0.84032,  -0.65358,  -0.32175,  -0.47699,   0.57859,   0.01055,  -0.40590,  -0.34333,  -0.28096,  -0.20011,  -0.55962,   0.65999,  -0.21281,  -0.24042,   0.75771,  -0.34546,   0.71621,  -0.34950,   0.73343,  -0.52124,   0.38624,  -0.20173,  -0.55402,   0.49309,   0.30267,   0.57756,   0.57619,  -0.00117,  -0.44241,   0.00090,  -0.13999,  -0.33528,  -0.15814,   0.31886,   0.39192,  -0.00162,  -0.57270,  -0.03935,  -0.69364,  -0.65406,   0.41983,  -0.11204,  -0.42240,   0.01567,  -0.36113,  -0.50266,  -0.31247,  -0.40876,  -0.64402,  -0.04334,  -0.24272,  -0.64064,   0.06005,  -0.30054,   0.30692,  -0.48665,  -0.28855,   0.68610,  -0.58004,   0.22201,   0.53130,  -0.42042
  -0.37357,  -0.27333,  -0.27533,  -0.04811,   0.32505,  -0.02896,   0.52134,  -0.46168,   0.23421,   0.70394,   0.16783,  -0.44014,   0.05400,   0.68519,   0.80504,  -0.27476,  -0.02990,  -0.08094,  -0.58279,  -0.28570,   0.69454,   0.35678,   0.13850,  -0.32905,  -0.27867,  -0.43367,  -0.15266,   0.19391,  -0.24522,  -0.59143,  -0.34445,   0.40993,   0.18788,   0.11875,   0.13110,  -0.09996,  -0.31001,  -0.13259,  -0.34971,  -0.62751,   0.33506,  -0.78678,  -0.17550,  -0.30100,  -0.34608,  -0.39072,  -0.73896,   0.34945,  -0.42638,  -0.47159,   0.60906,  -0.09580,   0.87998,  -0.55338,   0.32346,  -0.17560,   0.36677,   0.73800,  -0.54305,   0.78911,   0.14471,  -0.08961,   0.71056,   0.28477,   0.51012,   0.14622,   0.76369,  -0.73053,  -0.58724,  -0.00673,  -0.52825,  -0.11741,  -0.48158,  -0.43684,   0.61446,   0.31916,   0.06378,  -0.15346,  -0.42606,   0.28578,  -0.26309,   0.42044,   0.56207,  -0.33602,   0.02029,  -0.15720,   0.37672,   0.76777,   0.56688,  -0.24725,  -0.16391,  -0.57439,   0.14898,  -0.39068,   0.31640,  -0.11857,  -0.37947,  -0.35692,   0.44300,   0.16270,  -0.55340,  -0.01389,  -0.03073,   0.01001,  -0.25179,  -0.04539,  -0.52926,  -0.56427,  -0.56199,  -0.31660,   0.44627,  -0.74637,  -0.19445,  -0.29234,  -0.28026,  -0.00976,  -0.21763,   0.54177,  -0.70086,  -0.62436,  -0.41252,   0.30454,  -0.23138,  -0.23296,  -0.47333,  -0.30375,   0.35806,   0.38746
   0.47404,  -0.49564,   0.82726,  -0.42611,   0.19129,   0.66277,  -0.40395,   0.01600,   0.28519,  -0.33749,  -0.48481,  -0.56029,  -0.13890,  -0.42223,  -0.39487,  -0.25230,  -0.54409,  -0.37837,  -0.46733,  -0.21531,   0.37570,   0.04212,   0.72562,  -0.65395,  -0.21871,   0.63497,  -0.33489,  -0.61557,  -0.63234,  -0.19188,  -0.39334,   0.76075,  -0.66696,  -0.20218,   0.74772,  -0.76329,   0.37892,  -0.44432,   0.42942,  -0.52345,   0.34076,  -0.07251,  -0.17486,   0.48522,  -0.21125,  -0.72829,   0.77702,  -0.49893,  -0.36051,  -0.29340,   0.93750,   0.33641,  -0.54267,  -0.66139,   0.18547,   0.82100,   0.83702,   0.47343,  -0.63788,  -0.39400,   0.74311,  -0.42186,   0.64556,  -0.66380,   0.08136,  -0.21305,  -0.16266,   0.09935,  -0.70970,   0.79580,  -0.64317,  -0.21322,   0.01790,  -0.28231,   0.15323,  -0.65484,  -0.54834,  -0.64768,   0.61026,  -0.57134,  -0.60642,   0.31090,   0.80699,  -0.28494,  -0.74613,   0.74155,  -0.71050,   0.91140,  -0.42712,  -0.34684,   0.76571,   0.01455,   0.10373,   0.36550,  -0.37158,  -0.22538,   0.36391,   0.81581,  -0.61516,  -0.42465,  -0.57566,   0.48885,   0.65062,   0.87414,   0.87410,   0.31829,  -0.50438,  -0.66550,  -0.41531,  -0.41615,   0.65323,  -0.62509,   0.57146,  -0.47460,   0.12052,  -0.70614,   0.26025,   0.43505,  -0.29132,  -0.63655,  -0.59024,  -0.60164,   0.17513,  -0.30585,   0.34933,  -0.77333,   0.77394,   0.49306
   0.87202,  -0.35792,   0.26642,  -0.16398,  -0.05560,   0.80440,  -0.30835,   0.61072,  -0.66455,  -0.59199,  -0.51155,  -0.34378,  -0.07692,  -0.54663,  -0.09225,   0.72560,  -0.39591,  -0.49961,  -0.17693,   0.50069,  -0.63941,   0.07893,  -0.41921,   0.03258,  -0.59024,   0.39965,   0.69745,  -0.18635,  -0.74965,   0.51442,   0.48275,   0.22715,   0.01311,  -0.39155,  -0.54087,   0.22018,   0.87561,  -0.31760,   0.88287,   0.48008,  -0.57764,  -0.11078,   0.38945,  -0.59047,  -0.38313,  -0.33238,  -0.07636,  -0.68028,  -0.58059,   0.26050,  -0.06417,   0.81570,  -0.16149,   0.84720,  -0.26269,  -0.18376,   0.40258,   0.75248,  -0.36169,   0.48960,   0.09357,   0.13967,   0.75068,  -0.32785,  -0.26793,  -0.45787,  -0.38577,   0.23416,   0.75596,   0.71401,   0.56679,  -0.23452,  -0.12170,  -0.22891,   0.66937,   0.41082,  -0.48604,  -0.59614,   0.03272,   0.82695,   0.43949,   0.49388,  -0.50918,   0.40256,  -0.31639,  -0.10590,  -0.10956,  -0.23367,   0.23493,  -0.34486,   0.31703,  -0.60727,   0.45637,  -0.54424,   0.85022,  -0.68329,   0.65524,   0.11680,   0.21437,   0.61826,  -0.25530,  -0.37283,   0.35039,  -0.57680,  -0.19916,  -0.53926,  -0.36250,  -0.41505,  -0.27744,  -0.25367,  -0.22544,   0.56300,   0.31710,  -0.25689,   0.72818,  -0.34672,  -0.33399,  -0.21831,  -0.26340,  -0.48771,  -0.39283,  -0.48585,   0.22001,  -0.02760,   0.40925,   0.60319,  -0.40298,  -0.19056
  -0.43584,   0.84744,  -0.26530,   0.57695,   0.17590,  -0.51656,  -0.30905,   0.68914,  -0.40199,  -0.00865,  -0.83784,   0.82246,  -0.39618,  -0.52583,   0.90279,  -0.16363,  -0.44397,   0.25060,  -0.60623,  -0.57857,  -0.70694,  -0.54633,   0.67196,  -0.37357,   0.03181,  -0.29114,   0.09790,   0.35620,   0.09279,  -0.67626,   0.93750,  -0.53715,  -0.46156,   0.74862,  -0.46868,  -0.35736,   0.55254,  -0.48519,  -0.44639,   0.76201,  -0.31710,  -0.44650,   0.31339,  -0.64535,  -0.47659,   0.56905,  -0.18390,   0.77543,   0.61407,  -0.50207,  -0.33279,  -0.87500,   0.35221,  -0.40465,   0.40674,   0.09805,   0.43510,   0.68510,  -0.26512,   0.36240,   0.63543,  -0.41336,   0.43740,   0.32572,  -0.11884,  -0.55364,  -0.70316,  -0.59595,  -0.38724,   0.37343,  -0.72124,   0.67564,   0.61215,  -0.49901,  -0.02568,   0.87743,   0.67863,  -0.43920,  -0.53992,  -0.56320,  -0.65010,   0.25276,  -0.09187,  -0.30890,   0.62349,  -0.18195,   0.75281,   0.43386,   0.58327,  -0.73486,  -0.58831,  -0.55661,  -0.46820,  -0.57639,   0.59462,  -0.55171,  -0.50052,  -0.32883,  -0.02512,   0.91549,   0.68446,  -0.13090,  -0.25276,  -0.30070,   0.37723,  -0.50280,  -0.29459,   0.15787,   0.54747,   0.27889,   0.87649,   0.10884,   0.48140,  -0.54540,  -0.46101,   0.37323,   0.86219,  -0.00337,  -0.44767,   0.44106,   0.42728,   0.73525,  -0.09250,  -0.35792,  -0.32863,  -0.57310,  -0.50206,   0.71110
  -0.45746,  -0.56340,  -0.59615,  -0.25015,  -0.65525,  -0.31213,  -0.46387,   0.79235,   0.86095,   0.66867,  -0.68159,   0.79174,   0.82297,  -0.52664,  -0.55681,   0.80215,  -0.65631,  -0.13914,  -0.51608,  -0.41066,  -0.93750,  -0.74243,  -0.12979,  -0.44822,   0.70778,   0.86271,   0.75097,  -0.68080,  -0.82066,  -0.09041,  -0.82426,  -0.60957,  -0.71401,   0.80545,   0.77908,  -0.59957,  -0.38885,  -0.49444,  -0.39550,  -0.76362,   0.80510,  -0.39624,   0.55691,   0.77270,  -0.71717,   0.36748,  -0.51131,  -0.41128,   0.85980,   0.79906,  -0.40140,   0.93066,  -0.86232,  -0.48943,   0.80253,   0.85586,  -0.12339,   0.79339,   0.58298,  -0.41808,  -0.52590,  -0.30263,   0.11377,  -0.27900,   0.93750,  -0.12811,  -0.08256,   0.88034,  -0.92352,   0.73677,  -0.56794,   0.63444,   0.78917,   0.75984,  -0.50221,  -0.72057,   0.60097,  -0.51020,   0.64004,  -0.54552,  -0.70598,   0.74860,  -0.05174,  -0.52169,  -0.45372,  -0.09417,  -0.80026,   0.31046,  -0.61503,   0.82056,   0.79192,  -0.50626,   0.09744,  -0.48885,   0.86946,  -0.55077,  -0.11245,  -0.36208,  -0.33071,  -0.87294,  -0.49986,   0.25030,   0.85856,   0.85923,   0.36518,  -0.66717,   0.61888,  -0.19695,   0.58859,   0.75391,   0.85995,  -0.27141,   0.52698,   0.80011,   0.24428,   0.47264,  -0.56550,   0.71464,  -0.33622,  -0.19227,  -0.51006,   0.55778,   0.64969,  -0.44065,   0.82119,  -0.78289,  -0.54334,   0.80241
  -0.22009,  -0.33517,  -0.69536,  -0.50089,  -0.64749,   0.50470,  -0.44226,  -0.08355,   0.77416,  -0.59030,  -0.18388,   0.57692,   0.52224,   0.56335,  -0.60163,   0.61221,  -0.36699,  -0.54022,   0.29614,   0.26045,   0.26625,  -0.28115,  -0.53607,  -0.61484,   0.17176,   0.49935,   0.15121,  -0.57964,   0.00727,  -0.01512,  -0.11123,  -0.31855,   0.93750,   0.44686,   0.39103,  -0.69523,  -0.20532,   0.83860,  -0.39700,   0.59861,  -0.51736,  -0.54835,   0.15470,   0.56138,  -0.55782,  -0.25287,  -0.26201,  -0.41142,  -0.73718,   0.83324,  -0.48695,   0.76664,  -0.41740,   0.85770,   0.78575,   0.09131,  -0.41217,   0.08227,   0.55105,  -0.52991,  -0.25345,  -0.57162,   0.57001,  -0.20074,  -0.32613,  -0.13723,  -0.11778,  -0.56191,  -0.69748,   0.84832,   0.79763,  -0.21062,  -0.08887,   0.89589,  -0.23426,  -0.62814,  -0.25563,  -0.52738,   0.67719,   0.84069,   0.65419,   0.59331,   0.38501,   0.54124,   0.62908,   0.17288,  -0.44602,   0.51646,  -0.37941,   0.46507,  -0.07131,  -0.10955,   0.17076,  -0.08169,   0.46921,  -0.33309,  -0.07398,  -0.06309,   0.12100,   0.00969,  -0.56906,   0.22389,   0.34115,  -0.66757,   0.51567,  -0.51230,   0.58678,  -0.61209,  -0.25540,   0.93693,  -0.28797,   0.80786,   0.69928,   0.00492,  -0.05816,   0.55397,  -0.42297,  -0.55696,   0.16382,  -0.42908,  -0.16035,   0.10011,  -0.18365,  -0.15626,   0.27749,   0.75349,   0.56565,  -0.38876
   0.37825,  -0.03838,   0.39954,   0.87605,   0.39361,   0.75085,  -0.10612,   0.67598,  -0.75481,  -0.29302,  -0.60690,   0.02135,  -0.46225,  -0.35344,  -0.17688,  -0.17204,  -0.52502,  -0.53162,  -0.42784,  -0.55975,  -0.00057,  -0.41592,   0.02849,  -0.25036,   0.36870,  -0.33009,   0.70008,  -0.10084,  -0.45691,   0.93750,   0.73115,  -0.63235,   0.67867,  -0.30265,  -0.69235,  -0.22070,   0.90287,   0.81716,   0.40843,   0.74447,  -0.07148,   0.29460,   0.59697,  -0.19050,  -0.08386,  -0.25627,  -0.33277,   0.20394,   0.00007,  -0.13383,  -0.22444,  -0.62076,   0.37130,   0.59316,  -0.51655,  -0.14038,   0.84072,   0.43535,  -0.17441,   0.47053,   0.38622,  -0.08516,  -0.06548,  -0.63390,  -0.39575,  -0.49631,  -0.74279,   0.73378,   0.62514,   0.22319,   0.85121,  -0.09598,  -0.53723,  -0.58567,   0.80905,   0.39113,  -0.09320,  -0.24966,  -0.29815,   0.61637,  -0.17072,  -0.55754,  -0.28547,  -0.47800,  -0.40939,  -0.57796,   0.77542,  -0.48913,   0.66500,  -0.35648,  -0.70811,  -0.54293,  -0.21814,  -0.04070,   0.50245,  -0.61760,  -0.34545,   0.69758,   0.43304,   0.93750,   0.86271,  -0.46848,   0.13334,   0.08362,  -0.28050,  -0.23910,  -0.43480,  -0.32974,  -0.36851,  -0.04654,  -0.24704,   0.81619,   0.55013,  -0.45670,   0.07942,   0.00873,   0.31055,  -0.56902,  -0.49299,  -0.40320,   0.76706,   0.43195,   0.22980,  -0.46257,   0.05082,   0.39539,  -0.49362,  -0.16486
  -0.37532,   0.18987,  -0.57249,  -0.37706,  -0.64158,  -0.44990,  -0.42487,   0.76756,   0.35843,   0.57897,   0.07909,   0.77361,   0.93541,  -0.66364,  -0.12135,  -0.47138,  -0.71997,  -0.24463,   0.78652,   0.60384,  -0.36939,  -0.65169,  -0.23712,   0.13959,   0.23461,  -0.42147,  -0.20877,  -0.69587,  -0.68996,   0.70470,  -0.21293,  -0.54823,  -0.57088,  -0.67375,  -0.26317,  -0.34789,  -0.40098,  -0.01099,  -0.23879,  -0.45262,   0.32306,  -0.39069,   0.48234,   0.56147,  -0.54086,  -0.48416,  -0.50339,  -0.05779,  -0.63960,  -0.32934,  -0.24301,   0.55922,  -0.42854,  -0.11310,   0.75865,   0.49664,  -0.26046,   0.57918,  -0.34705,  -0.21622,  -0.17002,  -0.20982,   0.68440,  -0.33378,  -0.23070,  -0.49679,  -0.26783,   0.75908,   0.43734,  -0.55260,  -0.48983,   0.47773,  -0.51065,   0.17880,  -0.46035,  -0.64826,  -0.17276,   0.33591,  -0.12663,  -0.13494,  -0.29839,   0.16066,  -0.39360,  -0.14663,   0.67086,   0.09820,  -0.18699,  -0.05453,  -0.27105,  -0.42324,  -0.28055,  -0.57769,  -0.42023,  -0.53658,   0.64183,  -0.44900,  -0.34244,  -0.49676,   0.87519,   0.12498,  -0.28248,  -0.29843,   0.73310,  -0.43288,  -0.21843,  -0.46476,  -0.66929,  -0.55712,  -0.59259,   0.87524,  -0.07506,   0.39711,   0.41160,   0.71342,  -0.54088,   0.70749,  -0.51824,  -0.07785,  -0.45616,  -0.51327,   0.39236,   0.73978,  -0.19048,  -0.50546,  -0.42983,  -0.62669,  -0.60776,   0.77078
  -0.74586,  -0.28849,  -0.51875,  -0.33978,  -0.46039,  -0.13666,   0.22422,  -0.41269,   0.44115,  -0.13348,   0.59345,  -0.36387,  -0.04837,   0.78767,   0.45220,  -0.33160,   0.00651,   0.16947,  -0.51950,   0.21475,   0.88749,   0.75030,  -0.65476,  -0.49090,  -0.46131,  -0.25646,  -0.63295,  -0.13588,   0.25302,  -0.27258,  -0.01965,   0.07300,   0.33330,   0.58209,   0.84351,  -0.33645,  -0.43703,   0.69192,   0.05895,  -0.49059,   0.40254,  -0.57085,   0.16456,   0.22731,  -0.34654,  -0.32144,  -0.44039,   0.48570,  -0.42797,  -0.34164,   0.64461,   0.31830,  -0.63708,   0.82802,   0.85825,  -0.60246,  -0.62107,   0.40599,   0.37672,  -0.39284,  -0.18543,  -0.45526,   0.62451,   0.36765,   0.34930,   0.12588,  -0.29221,  -0.45656,   0.13929,  -0.23262,   0.87053,  -0.44078,  -0.30745,  -0.15700,   0.18168,  -0.14411,  -0.46766,   0.40508,  -0.26408,   0.68637,   0.43097,   0.80323,   0.72127,  -0.31634,   0.78992,  -0.03632,   0.10264,   0.54995,  -0.15608,   0.26986,  -0.34523,   0.58869,  -0.22388,  -0.04941,   0.00125,  -0.35711,  -0.44937,  -0.38830,   0.39769,  -0.33875,   0.20615,  -0.48783,  -0.31537,  -0.34349,  -0.34252,  -0.52808,  -0.11087,  -0.75192,  -0.83505,  -0.06261,  -0.70818,   0.04039,   0.25437,   0.35968,   0.26533,   0.82488,   0.64113,  -0.63717,  -0.42540,  -0.11047,   0.06747,  -0.41107,  -0.67588,  -0.55684,  -0.49729,   0.04925,   0.72898,   0.21374
  -0.15561,   0.09618,   0.39442,   0.44755,  -0.13222,  -0.11116,   0.69973,  -0.27503,  -0.20296,   0.54901,   0.62603,  -0.25743,  -0.62624,   0.21512,   0.62482,  -0.38172,   0.46530,   0.75150,  -0.32947,  -0.39125,   0.45958,   0.55106,   0.91074,   0.11748,   0.14346,  -0.59940,  -0.51826,  -0.00364,  -0.65790,  -0.59007,  -0.48511,  -0.05229,  -0.24687,  -0.23401,   0.22371,   0.09525,  -0.43131,   0.07811,  -0.40618,  -0.61718,  -0.14766,  -0.24746,   0.06932,  -0.73689,   0.39949,  -0.45142,  -0.28918,   0.58308,  -0.15155,  -0.70489,  -0.05736,  -0.57976,   0.21921,  -0.36336,   0.10281,  -0.69852,  -0.45042,  -0.36692,  -0.45731,   0.74718,   0.68595,   0.55999,  -0.16882,   0.52371,   0.30526,   0.07934,   0.36540,  -0.60431,  -0.45416,  -0.49524,  -0.06421,  -0.37638,   0.44432,   0.26379,  -0.15010,   0.75087,   0.13794,  -0.02670,  -0.60392,   0.00546,   0.22794,  -0.26944,  -0.21231,  -0.21508,  -0.35365,   0.75785,  -0.19402,  -0.24615,  -0.44761,   0.06061,  -0.28077,  -0.16106,   0.61174,   0.36848,  -0.48136,   0.79139,  -0.28589,   0.00293,  -0.01837,  -0.14386,   0.08281,   0.50743,  -0.12922,  -0.48614,  -0.15646,   0.75270,  -0.57575,  -0.18578,  -0.54741,  -0.09440,  -0.79101,  -0.35436,  -0.16223,  -0.39461,  -0.07424,  -0.32889,   0.01863,   0.20350,  -0.32635,  -0.17137,   0.05163,  -0.40272,  -0.10219,   0.18708,   0.19126,  -0.39559,  -0.64384,  -0.45606
   0.58148,  -0.35092,   0.67671,  -0.30294,   0.71094,   0.55378,  -0.23750,  -0.52970,  -0.17947,   0.10631,  -0.19308,  -0.18649,  -0.53313,  -0.21912,  -0.11685,   0.58068,   0.47149,  -0.01918,  -0.46306,   0.17912,   0.04647,   0.40141,   0.78710,  -0.20104,  -0.05612,  -0.42786,  -0.37125,   0.40157,  -0.63053,  -0.43455,  -0.31089,   0.78548,  -0.51058,  -0.26405,   0.62474,   0.06499,  -0.05082,  -0.03290,   0.20713,  -0.67588,   0.02530,  -0.36041,  -0.25186,  -0.49102,   0.70408,  -0.33483,   0.32351,  -0.76338,   0.82057,  -0.25746,   0.23457,  -0.13781,  -0.43640,  -0.47521,  -0.40158,   0.85633,   0.81439,  -0.28785,  -0.43324,   0.29238,   0.76012,  -0.12598,  -0.30692,  -0.24109,  -0.14773,   0.53960,   0.59410,   0.09072,  -0.39995,   0.17444,  -0.44428,  -0.28582,   0.26223,  -0.36128,   0.69264,  -0.43409,  -0.40733,  -0.00272,  -0.34032,  -0.58640,  -0.20608,   0.42237,  -0.30143,   0.25926,  -0.35562,   0.11873,  -0.34305,  -0.22109,  -0.61680,  -0.38861,   0.76042,  -0.12070,  -0.13937,   0.87099,  -0.36046,  -0.17467,   0.77313,   0.33957,  -0.35700,  -0.40435,  -0.16096,   0.56176,  -0.16179,   0.72466,  -0.10430,   0.69933,   0.40300,  -0.44839,  -0.31467,  -0.48367,   0.47136,  -0.58416,  -0.10395,   0.01987,   0.54341,  -0.48800,  -0.45695,   0.71634,   0.69374,  -0.45616,  -0.27242,  -0.50358,  -0.35724,  -0.11012,   0.76516,  -0.52334,   0.32010,  -0.27503
   0.56360,  -0.43015,   0.87500,   0.11375,   0.47169,   0.61392,   0.62882,  -0.37020,  -0.61709,  -0.41874,   0.47639,  -0.52600,  -0.87600,  -0.44636,  -0.29615,   0.93498,  -0.38667,  -0.49205,   0.45644,   0.82537,  -0.21790,  -0.08266,  -0.08772,   0.88638,   0.07421,  -0.18350,   0.93138,  -0.33697,  -0.19200,  -0.21509,  -0.00969,   0.53607,  -0.11296,  -0.33572,  -0.22160,   0.43199,   0.05774,  -0.22372,  -0.08931,   0.74793,  -0.46418,  -0.25102,  -0.07253,  -0.81334,  -0.21740,  -0.38154,   0.69528,  -0.50363,  -0.24322,  -0.16165,  -0.36022,  -0.30305,  -0.06338,   0.84174,  -0.38034,  -0.59305,   0.08891,  -0.12593,  -0.45980,  -0.33802,   0.52918,   0.32169,  -0.10403,  -0.03321,  -0.56700,  -0.15051,  -0.31623,  -0.11998,  -0.07714,  -0.42610,   0.84493,  -0.11135,  -0.25782,  -0.43162,  -0.26509,   0.52143,  -0.09291,  -0.45550,  -0.81994,  -0.13826,   0.37942,  -0.19679,  -0.27369,   0.49414,  -0.45264,  -0.18018,  -0.35378,  -0.33698,   0.39690,  -0.53086,  -0.17926,  -0.36428,  -0.57534,  -0.14455,  -0.13620,   0.09053,   0.68507,  -0.04787,  -0.43827,   0.14377,  -0.34392,  -0.15006,  -0.34515,   0.81523,  -0.03988,   0.27812,  -0.29413,   0.21451,  -0.48085,  -0.38597,  -0.66433,  -0.40657,  -0.20819,  -0.26515,   0.67454,  -0.36594,  -0.19307,   0.56159,   0.29186,  -0.21887,  -0.33379,   0.12427,   0.41060,   0.85690,   0.36432,  -0.23802,  -0.41085,  -0.16681
   0.06766,   0.82728,   0.93750,   0.87902,   0.45782,  -0.36665,   0.48650,   0.49014,  -0.64552,   0.72112,   0.03048,   0.01318,  -0.52957,  -0.63255,   0.62636,   0.03488,  -0.05155,   0.69633,  -0.00032,  -0.60879,  -0.50840,  -0.57803,  -0.40100,  -0.30692,   0.28979,  -0.74592,  -0.68277,   0.81693,   0.57296,  -0.37836,   0.23007,  -0.41518,  -0.69688,   0.10200,  -0.38799,  -0.37578,  -0.37757,  -0.26028,  -0.51898,   0.86037,  -0.82254,  -0.32342,  -0.31529,  -0.77330,  -0.34607,   0.11653,  -0.00459,   0.63968,   0.67508,  -0.40619,  -0.67703,  -0.47488,   0.69829,  -0.46161,   0.13371,  -0.21244,  -0.59355,  -0.16470,  -0.14651,   0.69429,   0.75754,  -0.08115,  -0.12208,   0.73492,   0.54991,   0.09680,  -0.30372,  -0.25533,  -0.32978,  -0.46583,  -0.50476,   0.43214,   0.78304,   0.15357,  -0.16644,   0.50832,   0.09060,  -0.00905,  -0.70500,  -0.25078,  -0.26850,  -0.33086,  -0.42169,  -0.51590,   0.36946,   0.40433,   0.30523,   0.23684,   0.64331,  -0.50584,  -0.01738,  -0.49972,   0.06746,  -0.33624,  -0.33710,  -0.13142,  -0.30599,  -0.03622,   0.08061,   0.33893,   0.74396,   0.26146,  -0.71101,  -0.23286,   0.57790,   0.19801,   0.31900,   0.83436,   0.76746,  -0.52437,  -0.10000,   0.55969,  -0.21141,   0.16747,  -0.44862,   0.43821,   0.87500,   0.50246,  -0.76582,   0.52911,   0.57553,   0.62649,   0.66412,  -0.42491,   0.72473,  -0.10051,  -0.66413,  -0.17054
  -0.35930,   0.74772,  -0.68688,   0.11003,  -0.03173,  -0.47816,  -0.51122,   0.10664,   0.78612,   0.60119,  -0.44760,   0.72420,   0.87307,  -0.51378,  -0.48538,   0.64581,  -0.15947,  -0.20974,  -0.43108,   0.18398,  -0.73666,  -0.62378,  -0.51795,  -0.31635,   0.89611,   0.61987,  -0.37799,  -0.58282,  -0.00335,   0.74784,  -0.35837,  -0.78211,  -0.52300,   0.20405,   0.78082,  -0.08187,  -0.80254,  -0.60240,  -0.13672,  -0.44525,   0.24788,   0.73857,   0.02270,   0.84744,  -0.15348,  -0.39839,  -0.44038,  -0.64407,   0.74440,   0.66902,  -0.66839,   0.77269,  -0.47096,  -0.41657,  -0.05884,   0.64737,  -0.33544,  -0.33215,   0.83145,  -0.20554,  -0.04606,  -0.07836,  -0.23572,  -0.14839,   0.84349,  -0.56110,  -0.04694,   0.61167,  -0.41350,   0.24848,  -0.76892,   0.21047,   0.67142,   0.82299,  -0.60986,  -0.66373,   0.39821,  -0.16388,   0.87083,  -0.24797,  -0.54069,   0.42424,  -0.45991,  -0.12338,  -0.35845,   0.86345,  -0.57462,   0.24338,  -0.48579,   0.88191,   0.93164,  -0.58102,   0.33307,  -0.28844,  -0.42958,   0.17436,   0.48708,  -0.21915,  -0.41412,  -0.32874,  -0.71596,   0.92009,  -0.32632,   0.50190,   0.43176,  -0.51932,   0.63012,  -0.07123,   0.64613,   0.12334,   0.69680,  -0.39261,  -0.25835,   0.79990,   0.50397,   0.83416,  -0.64955,   0.81808,   0.68239,  -0.38700,  -0.38306,  -0.27775,   0.81422,  -0.45702,   0.77703,  -0.65687,  -0.69918,   0.32650
   0.49918,   0.32265,  -0.34034,  -0.12179,  -0.25757,  -0.03427,  -0.17068,  -0.55952,  -0.33309,  -0.14680,   0.44342,   0.11710,   0.21807,   0.72925,  -0.46179,   0.74611,   0.00891,  -0.38070,   0.07972,   0.46125,   0.03746,   0.29059,   0.06204,   0.03652,   0.80408,   0.42375,   0.74370,  -0.42529,   0.80543,  -0.68043,  -0.50373,  -0.57017,   0.54446,  -0.37476,  -0.11832,  -0.59799,  -0.54888,   0.62071,  -0.58127,  -0.28744,  -0.42151,  -0.07840,  -0.72270,   0.55662,  -0.05705,  -0.52259,  -0.08552,  -0.40830,  -0.47113,   0.80153,   0.22330,   0.59479,  -0.35069,   0.47652,  -0.32633,  -0.00832,  -0.54124,  -0.14922,   0.35687,  -0.43504,  -0.58958,   0.00369,  -0.17368,  -0.28747,   0.08934,  -0.26507,  -0.08415,  -0.59084,   0.58735,  -0.52542,  -0.04085,  -0.16821,   0.53245,   0.75948,  -0.08608,  -0.53850,  -0.46038,   0.00045,   0.75093,   0.67186,   0.28998,   0.05367,   0.26162,   0.72708,   0.16952,   0.69671,  -0.19661,  -0.21131,  -0.40472,   0.82284,  -0.56916,   0.81246,  -0.25887,  -0.04709,  -0.27673,  -0.07181,   0.60075,  -0.56256,  -0.45224,  -0.43096,  -0.13377,  -0.39772,  -0.18886,  -0.63292,   0.79336,   0.16718,   0.79126,  -0.28192,  -0.48780,   0.09044,  -0.73164,   0.60547,  -0.46569,   0.51976,   0.44913,   0.32402,  -0.43598,   0.13109,   0.29574,  -0.14485,  -0.19146,  -0.39635,  -0.07548,   0.67593,   0.05125,   0.46766,   0.44556,  -0.36605
  -0.46822,   0.38528,   0.31319,   0.59917,   0.26167,   0.28988,  -0.54176,  -0.20780,  -0.69091,   0.13847,   0.40048,  -0.47257,  -0.57340,  -0.41632,  -0.29579,  -0.19850,  -0.37758,   0.47387,   0.34494,   0.17521,   0.53794,   0.11795,   0.40896,  -0.27025,   0.19843,  -0.15714,  -0.43995,   0.34255,   0.44097,   0.54700,   0.90433,  -0.04937,   0.65194,  -0.21587,  -0.39259,  -0.01875,   0.87207,  -0.06705,   0.71187,   0.43804,  -0.27708,   0.40717,  -0.01993,  -0.08914,   0.26261,   0.55341,  -0.42024,   0.18981,   0.59876,  -0.25459,  -0.29726,  -0.66993,   0.44770,   0.06795,  -0.65959,  -0.35976,   0.88322,  -0.03680,  -0.01382,   0.85500,   0.22038,  -0.32013,  -0.27494,  -0.65753,  -0.46812,   0.07185,  -0.19909,  -0.39222,   0.61376,  -0.23819,   0.07576,   0.02120,   0.40448,  -0.27800,   0.50064,   0.59662,  -0.61344,  -0.33005,  -0.02092,   0.72475,  -0.14372,  -0.23137,  -0.22915,   0.55305,  -0.36072,  -0.40463,  -0.01075,  -0.06617,   0.41530,  -0.41980,  -0.30717,  -0.57020,  -0.21950,  -0.19123,  -0.47766,  -0.26378,  -0.32706,   0.27052,   0.17388,   0.93750,   0.81147,   0.04538,  -0.29285,   0.52218,   0.75179,   0.25027,  -0.53980,   0.68116,   0.46523,  -0.79784,   0.02195,   0.29730,  -0.01367,  -0.25045,   0.21386,   0.68538,   0.46092,  -0.39123,  -0.30650,   0.56822,   0.59163,  -0.38049,   0.87427,   0.03308,   0.08418,   0.26716,  -0.52655,  -0.33441
  -0.51401,   0.61925,  -0.38659,  -0.30348,  -0.28691,  -0.18452,  -0.48852,   0.15894,   0.57512,   0.88792,  -0.22928,  -0.15045,   0.42170,  -0.34247,  -0.18042,  -0.17366,  -0.19890,   0.03896,   0.29353,   0.78049,  -0.71709,  -0.39992,  -0.38338,   0.06268,   0.86487,   0.06045,  -0.17204,  -0.39113,   0.03274,   0.88160,  -0.28606,   0.32975,  -0.26090,   0.08039,   0.73666,   0.15994,  -0.50877,  -0.64455,  -0.47966,  -0.56156,  -0.17448,   0.09482,   0.35794,  -0.04006,   0.11730,   0.23431,  -0.41649,   0.23248,   0.25988,  -0.00950,  -0.59712,  -0.48980,  -0.29921,  -0.55514,   0.32122,  -0.39179,  -0.33297,  -0.05640,  -0.02022,  -0.22263,  -0.72222,  -0.36631,  -0.57318,  -0.33962,   0.71848,  -0.55899,  -0.20281,   0.79141,   0.42697,  -0.12436,  -0.26297,  -0.07360,  -0.50412,   0.60224,  -0.63327,  -0.49050,   0.49694,   0.58984,  -0.35264,  -0.60979,  -0.16985,  -0.58231,  -0.50294,   0.01413,  -0.29518,   0.00026,   0.16938,  -0.43862,  -0.30496,  -0.03399,  -0.20092,   0.69502,  -0.29642,  -0.29828,   0.09320,  -0.10204,   0.03222,  -0.39111,   0.76850,  -0.75163,  -0.17592,   0.58798,   0.07340,  -0.39946,  -0.50412,  -0.42011,   0.79937,  -0.23079,   0.69928,  -0.25606,  -0.49591,  -0.42041,  -0.17889,   0.76408,   0.03042,   0.25472,  -0.61617,   0.28382,  -0.04331,   0.68709,   0.41008,  -0.13243,   0.46126,  -0.16212,   0.25910,  -0.07977,   0.64270,  -0.57246
   0.56230,   0.28103,  -0.59906,  -0.31261,  -0.68141,  -0.04319,  -0.22953,  -0.64954,  -0.02195,   0.08176,   0.21786,  -0.29069,   0.54107,   0.71408,   0.30137,   0.17705,   0.68220,   0.46948,   0.61625,   0.89371,  -0.21815,   0.10954,  -0.26238,   0.27517,  -0.26444,  -0.14965,  -0.62651,   0.11539,   0.72185,  -0.86869,  -0.13064,  -0.08333,   0.01733,   0.15395,   0.24692,   0.24633,  -0.26777,   0.27967,  -0.00761,  -0.02763,   0.56241,  -0.23939,  -0.02915,   0.19090,  -0.15954,   0.39197,  -0.16403,   0.24801,  -0.27612,   0.01579,   0.86702,  -0.69351,  -0.13930,  -0.12279,  -0.35891,  -0.37998,  -0.48845,  -0.42105,   0.51425,   0.21747,  -0.21635,  -0.27539,  -0.18736,  -0.02892,  -0.34243,  -0.06038,  -0.23262,  -0.39684,  -0.33955,  -0.02300,   0.24069,  -0.42030,  -0.29947,   0.76563,   0.08906,  -0.48999,  -0.25465,   0.70189,  -0.20527,  -0.25736,   0.71723,  -0.54430,   0.72346,   0.26886,   0.57535,   0.32619,   0.42426,  -0.17013,   0.03530,  -0.10617,  -0.47739,   0.71547,  -0.30991,   0.23704,  -0.42608,   0.70160,  -0.53899,  -0.19409,  -0.43667,  -0.45777,  -0.02522,   0.32453,  -0.03143,  -0.78253,  -0.09452,  -0.40087,   0.71261,  -0.49164,  -0.58134,   0.74801,   0.13259,  -0.50208,  -0.31718,  -0.28792,  -0.31015,  -0.26252,  -0.04409,  -0.01888,  -0.59927,  -0.28552,  -0.17879,  -0.19971,  -0.16067,   0.56754,  -0.17633,  -0.00027,   0.80201,  -0.32359
